svm_type c_svc
kernel_type polynomial
degree 2
gamma 0.2
coef0 0.0
nr_class 2
total_sv 410
rho -0.39029076599657775
label 1 -1
nr_sv 235 175
SV
1.6124055201947542 41:1.0 42:1.0 6:1.0 
1.4079625410194267 436:1.0 65:1.0 3:1.0 
1.501649716164364 436:1.0 118:1.0 50:1.0 
2.9411484491151865 89:1.0 11:1.0 53:1.0 
2.443891945221222 477:1.0 37:1.0 16:1.0 
2.9320987619827554 384:1.0 132:1.0 278:1.0 
3.2986110980143866 12:1.0 46:1.0 53:1.0 
2.4562419276565 24:1.0 23:1.0 44:1.0 
2.9320987619827554 1022:1.0 118:1.0 26:1.0 
2.9320987619827554 321:1.0 18:1.0 19:1.0 
1.5544324232692681 254:1.0 72:1.0 303:1.0 
1.6388842659508693 134:1.0 11:1.0 303:1.0 
4.062499950930942 590:1.0 46:1.0 327:1.0 
3.12499999126885 829:1.0 18:1.0 19:1.0 
2.443891945221222 998:1.0 222:1.0 47:1.0 
2.805105451412832 449:1.0 222:1.0 3:1.0 
1.6118574356176454 323:1.0 46:1.0 327:1.0 
1100.0 729:1.0 42:1.0 50:1.0 
1.7455841975341833 107:1.0 28:1.0 303:1.0 
2.9320987619827554 1037:1.0 42:1.0 16:1.0 
2.9320987619827554 998:1.0 42:1.0 53:1.0 
2.9320987619827554 1590:1.0 18:1.0 19:1.0 
1.6342589417554336 945:1.0 46:1.0 16:1.0 
3.12499999126885 148:1.0 160:1.0 16:1.0 
1.3953011746143895 216:1.0 118:1.0 16:1.0 
2.9320987619827554 1047:1.0 11:1.0 53:1.0 
1.562499925785233 216:1.0 46:1.0 47:1.0 
1.6596919696810062 104:1.0 46:1.0 50:1.0 
1.7341822046785869 78:1.0 307:1.0 327:1.0 
1.6927103835101627 261:1.0 42:1.0 327:1.0 
2.9406721498025123 436:1.0 30:1.0 16:1.0 
3.12499999126885 89:1.0 73:1.0 74:1.0 
1.860425260152082 68:1.0 65:1.0 327:1.0 
7.49999968707562 590:1.0 2:1.0 130:1.0 
1.4773777123551202 216:1.0 55:1.0 26:1.0 
2.9320987619827554 945:1.0 118:1.0 50:1.0 
1.8904321176290255 205:1.0 5:1.0 327:1.0 
1.634001979305875 2096:1.0 18:1.0 19:1.0 
2.9320987619827554 477:1.0 118:1.0 16:1.0 
2.4100746932548653 742:1.0 42:1.0 16:1.0 
2.9320987619827554 182:1.0 28:1.0 16:1.0 
2.421108961046627 216:1.0 160:1.0 16:1.0 
2.9320987619827554 2096:1.0 42:1.0 16:1.0 
2.9406721498025123 216:1.0 65:1.0 3:1.0 
2.9320987619827554 729:1.0 52:1.0 16:1.0 
1.946075829416406 39:1.0 42:1.0 16:1.0 
1.8904321176290255 308:1.0 23:1.0 327:1.0 
1.8796937271148204 119:1.0 65:1.0 327:1.0 
2.9320987619827554 742:1.0 52:1.0 26:1.0 
1.596774464106147 311:1.0 5:1.0 474:1.0 
2.9044696801973195 34:1.0 42:1.0 249:1.0 
1.4130906634478224 97:1.0 11:1.0 249:1.0 
1100.0 77:1.0 28:1.0 6:1.0 
1.5125944710740957 216:1.0 42:1.0 121:1.0 
2.5161703713240318 117:1.0 46:1.0 130:1.0 
2.9320987619827554 646:1.0 118:1.0 6:1.0 
2.623456793572799 104:1.0 118:1.0 26:1.0 
1.3888889440783743 3570:1.0 8:1.0 327:1.0 
1.3888889440783743 3572:1.0 11:1.0 6:1.0 
1.3888889440783743 3573:1.0 42:1.0 6:1.0 
1.3888889440783743 1376:1.0 23:1.0 327:1.0 
1.3888889440783743 1175:1.0 69:1.0 16:1.0 
1.3888889440783743 1129:1.0 72:1.0 16:1.0 
1.3888889440783743 3568:1.0 2:1.0 87:1.0 
1.3888889440783743 1977:1.0 2:1.0 87:1.0 
1.3888889440783743 3574:1.0 2:1.0 130:1.0 
1.3888889440783743 3640:1.0 73:1.0 74:1.0 
1.3888889440783743 1466:1.0 18:1.0 19:1.0 
1.3888889440783743 3116:1.0 2:1.0 44:1.0 
1.3888889440783743 3576:1.0 46:1.0 327:1.0 
1.3888889440783743 1263:1.0 69:1.0 50:1.0 
1.3888889440783743 3577:1.0 2:1.0 327:1.0 
1.3888889440783743 2039:1.0 69:1.0 53:1.0 
1.3888889440783743 361:1.0 72:1.0 16:1.0 
1.3888889440783743 1603:1.0 46:1.0 130:1.0 
1.3888889440783743 3578:1.0 73:1.0 74:1.0 
1.3888889440783743 3579:1.0 23:1.0 47:1.0 
1.3888889440783743 790:1.0 11:1.0 16:1.0 
1.3888889440783743 137:1.0 65:1.0 3:1.0 
1.3888889440783743 3562:1.0 5:1.0 50:1.0 
1.3888889440783743 1025:1.0 28:1.0 50:1.0 
1.3888889440783743 3580:1.0 8:1.0 327:1.0 
1.3888889440783743 3581:1.0 11:1.0 6:1.0 
1.3888889440783743 3641:1.0 65:1.0 9:1.0 
1.3888889440783743 580:1.0 15:1.0 16:1.0 
1.3888889440783743 171:1.0 72:1.0 16:1.0 
1.3888889440783743 877:1.0 37:1.0 74:1.0 
1.3888889440783743 3566:1.0 103:1.0 121:1.0 
1.3888889440783743 370:1.0 58:1.0 6:1.0 
1.3888889440783743 3642:1.0 8:1.0 47:1.0 
1.3888889440783743 783:1.0 11:1.0 33:1.0 
1.3888889440783743 227:1.0 28:1.0 16:1.0 
1.3888889440783743 2440:1.0 18:1.0 19:1.0 
1.3888889440783743 3224:1.0 30:1.0 16:1.0 
1.3888889440783743 553:1.0 5:1.0 6:1.0 
1.3888889440783743 656:1.0 8:1.0 44:1.0 
1.3888889440783743 410:1.0 28:1.0 26:1.0 
1.3888889440783743 634:1.0 30:1.0 6:1.0 
1.3888889440783743 1330:1.0 30:1.0 26:1.0 
1.3888889440783743 2365:1.0 11:1.0 26:1.0 
1.3888889440783743 2554:1.0 46:1.0 47:1.0 
1.3888889440783743 319:1.0 11:1.0 26:1.0 
1.3888889440783743 109:1.0 28:1.0 16:1.0 
1.3888889440783743 355:1.0 69:1.0 16:1.0 
1.4033565365586829 673:1.0 42:1.0 16:1.0 
1.4055064677807048 3571:1.0 46:1.0 9:1.0 
1.4990666199630331 309:1.0 23:1.0 9:1.0 
1.5420191523889604 345:1.0 15:1.0 16:1.0 
1.544728021961283 3643:1.0 69:1.0 16:1.0 
1.5510450348694123 142:1.0 28:1.0 16:1.0 
1.5517832057241383 3153:1.0 46:1.0 3:1.0 
1.5517832057241383 2600:1.0 2:1.0 3:1.0 
1.6433929223994872 357:1.0 2:1.0 101:1.0 
1.6537113469778226 2654:1.0 55:1.0 101:1.0 
1.6537113469778226 1658:1.0 2:1.0 101:1.0 
1.6537113469778226 3644:1.0 28:1.0 16:1.0 
1.6537113469778226 3645:1.0 18:1.0 19:1.0 
1.6550523152206909 92:1.0 46:1.0 9:1.0 
1.6803841092540728 471:1.0 15:1.0 16:1.0 
1.6803841092540728 245:1.0 28:1.0 26:1.0 
1.6803841092540728 57:1.0 72:1.0 26:1.0 
1.6803841092540728 2052:1.0 46:1.0 130:1.0 
1.6803841092540728 3646:1.0 73:1.0 74:1.0 
1.6803841092540728 2973:1.0 28:1.0 50:1.0 
2.9337062721585383 43:1.0 28:1.0 50:1.0 
1.722035474863669 903:1.0 28:1.0 50:1.0 
1100.0 51:1.0 58:1.0 50:1.0 
1.777556685703664 246:1.0 42:1.0 50:1.0 
1.7803011261834936 3647:1.0 73:1.0 74:1.0 
1.7890668567526395 3648:1.0 18:1.0 19:1.0 
1.8070797327490835 1592:1.0 18:1.0 19:1.0 
1.8070797327490835 3649:1.0 28:1.0 16:1.0 
1.8070797327490835 3087:1.0 2:1.0 3:1.0 
1.8689986481874237 3088:1.0 23:1.0 3:1.0 
1.8991286116571404 2804:1.0 5:1.0 50:1.0 
1.94285150444886 3089:1.0 28:1.0 16:1.0 
1.9825960404102416 1286:1.0 18:1.0 19:1.0 
2.0071553090677106 150:1.0 5:1.0 26:1.0 
2.1207079671557385 165:1.0 28:1.0 26:1.0 
2.1262002896788346 1528:1.0 30:1.0 16:1.0 
2.1262002896788346 798:1.0 28:1.0 16:1.0 
2.1262002896788346 3366:1.0 5:1.0 16:1.0 
2.1262002896788346 815:1.0 46:1.0 130:1.0 
2.1262002896788346 464:1.0 73:1.0 74:1.0 
2.1262002896788346 420:1.0 18:1.0 19:1.0 
2.1262002896788346 255:1.0 65:1.0 47:1.0 
2.1262002896788346 871:1.0 11:1.0 16:1.0 
2.1262002896788346 2814:1.0 28:1.0 16:1.0 
2.160493840957865 2471:1.0 23:1.0 220:1.0 
2.160493840957865 334:1.0 222:1.0 47:1.0 
2.160493840957865 3650:1.0 11:1.0 16:1.0 
2.160493840957865 239:1.0 65:1.0 3:1.0 
2.160493840957865 3091:1.0 18:1.0 19:1.0 
2.160493840957865 455:1.0 23:1.0 50:1.0 
2.160493840957865 1739:1.0 42:1.0 3:1.0 
2.160493840957865 3651:1.0 5:1.0 9:1.0 
2.160493840957865 3039:1.0 15:1.0 50:1.0 
2.160493840957865 2532:1.0 46:1.0 327:1.0 
2.160493840957865 225:1.0 69:1.0 50:1.0 
2.160493840957865 195:1.0 96:1.0 220:1.0 
2.160493840957865 221:1.0 222:1.0 47:1.0 
2.160493840957865 240:1.0 46:1.0 47:1.0 
2.160493840957865 3652:1.0 46:1.0 47:1.0 
2.160493840957865 3199:1.0 11:1.0 16:1.0 
2.160493840957865 3063:1.0 5:1.0 26:1.0 
2.160493840957865 2431:1.0 30:1.0 50:1.0 
2.160493840957865 1407:1.0 28:1.0 50:1.0 
3.651258658333567 17:1.0 42:1.0 50:1.0 
2.160493840957865 1281:1.0 2:1.0 3:1.0 
2.160493840957865 486:1.0 5:1.0 26:1.0 
2.173830225772894 208:1.0 72:1.0 26:1.0 
2.1776406165973796 2026:1.0 55:1.0 101:1.0 
2.3233882129826005 64:1.0 65:1.0 101:1.0 
2.3233882129826005 3655:1.0 222:1.0 197:1.0 
2.3233882129826005 3350:1.0 103:1.0 50:1.0 
2.9320987619827554 117:1.0 42:1.0 3:1.0 
2.3233882129826005 3656:1.0 55:1.0 87:1.0 
2.3233882129826005 3657:1.0 2:1.0 3:1.0 
2.3233882129826005 3653:1.0 5:1.0 6:1.0 
2.391366917581411 3242:1.0 8:1.0 130:1.0 
2.623456793572799 3401:1.0 73:1.0 74:1.0 
2.623456793572799 2263:1.0 30:1.0 50:1.0 
2.623456793572799 3658:1.0 11:1.0 26:1.0 
1.388888833699403 230:1.0 132:1.0 26:1.0 
1.388888833699403 337:1.0 11:1.0 53:1.0 
1.388888833699403 1134:1.0 8:1.0 3:1.0 
1.388888833699403 808:1.0 28:1.0 6:1.0 
1.388888833699403 1626:1.0 8:1.0 3:1.0 
1.388888833699403 579:1.0 28:1.0 50:1.0 
1.388888833699403 188:1.0 18:1.0 19:1.0 
1.388888833699403 3216:1.0 5:1.0 50:1.0 
1.388888833699403 3234:1.0 42:1.0 16:1.0 
1.388888833699403 108:1.0 65:1.0 3:1.0 
1.388888833699403 1325:1.0 23:1.0 3:1.0 
1.388888833699403 1176:1.0 28:1.0 303:1.0 
1.388888833699403 346:1.0 65:1.0 303:1.0 
1.388888833699403 1146:1.0 222:1.0 197:1.0 
1.388888833699403 3660:1.0 8:1.0 303:1.0 
1.388888833699403 3661:1.0 11:1.0 6:1.0 
1.388888833699403 3662:1.0 307:1.0 3:1.0 
1.388888833699403 946:1.0 28:1.0 50:1.0 
1.388888833699403 616:1.0 42:1.0 16:1.0 
1.388888833699403 3659:1.0 42:1.0 50:1.0 
1.388888833699403 2773:1.0 28:1.0 50:1.0 
1.388888833699403 269:1.0 28:1.0 50:1.0 
1.388888833699403 615:1.0 28:1.0 50:1.0 
1.388888833699403 253:1.0 42:1.0 16:1.0 
1.388888833699403 730:1.0 42:1.0 50:1.0 
1.388888833699403 85:1.0 28:1.0 16:1.0 
1.388888833699403 435:1.0 65:1.0 3:1.0 
1.388888833699403 712:1.0 5:1.0 16:1.0 
1.388888833699403 3113:1.0 18:1.0 19:1.0 
1.388888833699403 331:1.0 42:1.0 16:1.0 
1.388888833699403 1082:1.0 28:1.0 50:1.0 
1.388888833699403 564:1.0 28:1.0 50:1.0 
1.388888833699403 1133:1.0 28:1.0 6:1.0 
1.388888833699403 3664:1.0 8:1.0 327:1.0 
1.388888833699403 3663:1.0 69:1.0 50:1.0 
2.7777777777777772 32:1.0 28:1.0 33:1.0 
1.388888833699403 270:1.0 5:1.0 33:1.0 
1.388888833699403 131:1.0 72:1.0 33:1.0 
1.388888833699403 596:1.0 96:1.0 130:1.0 
1.388888833699403 120:1.0 72:1.0 6:1.0 
1.388888833699403 3654:1.0 2:1.0 87:1.0 
1.388888833699403 480:1.0 2:1.0 101:1.0 
1.388888833699403 2437:1.0 103:1.0 121:1.0 
1.388888833699403 1935:1.0 8:1.0 130:1.0 
1.388888833699403 3665:1.0 42:1.0 130:1.0 
1.4033564250299313 97:1.0 73:1.0 74:1.0 
1.388888833699403 190:1.0 37:1.0 50:1.0 
1.388888833699403 3666:1.0 2:1.0 47:1.0 
1.388888833699403 1691:1.0 11:1.0 33:1.0 
2.9928446015253214 77:1.0 28:1.0 50:1.0 
1.3824766031633877 3667:1.0 28:1.0 50:1.0 
1.300400065422657 288:1.0 42:1.0 16:1.0 
-2.623456793572799 590:1.0 42:1.0 50:1.0 
-2.623456793572799 104:1.0 122:1.0 33:1.0 
-1.722035474863669 77:1.0 72:1.0 50:1.0 
-2.9337062721585383 77:1.0 46:1.0 47:1.0 
-4.32250579973906 449:1.0 122:1.0 74:1.0 
-1.860425260152082 154:1.0 21:1.0 327:1.0 
-2.3233882129826005 742:1.0 58:1.0 53:1.0 
-2.1262002896788346 697:1.0 122:1.0 50:1.0 
-2.1207079671557385 20:1.0 21:1.0 33:1.0 
-2.160493840957865 959:1.0 122:1.0 44:1.0 
-2.160493840957865 1095:1.0 21:1.0 50:1.0 
-2.7777777777777772 1219:1.0 122:1.0 74:1.0 
-1.6803841092540728 237:1.0 21:1.0 47:1.0 
-2.160493840957865 237:1.0 21:1.0 16:1.0 
-2.7777777777777772 237:1.0 21:1.0 26:1.0 
-1.4055064677807048 182:1.0 271:1.0 26:1.0 
-2.7777777777777772 1463:1.0 21:1.0 16:1.0 
-1.7455841975341833 542:1.0 21:1.0 327:1.0 
-1.8070797327490835 182:1.0 271:1.0 53:1.0 
-2.7777777777777772 1100:1.0 21:1.0 16:1.0 
-2.7777777777777772 1095:1.0 21:1.0 16:1.0 
-4.687499917054083 216:1.0 149:1.0 33:1.0 
-1100.0 77:1.0 28:1.0 6:1.0 
-2.9320987619827554 1738:1.0 21:1.0 16:1.0 
-2.160493840957865 1777:1.0 21:1.0 16:1.0 
-1.6803841092540728 1591:1.0 21:1.0 50:1.0 
-1.6537113469778226 31:1.0 21:1.0 303:1.0 
-4.329560983501915 1037:1.0 122:1.0 74:1.0 
-2.160493840957865 1891:1.0 21:1.0 130:1.0 
-2.160493840957865 1892:1.0 21:1.0 130:1.0 
-2.7777777777777772 1891:1.0 21:1.0 6:1.0 
-2.7777777777777772 1892:1.0 21:1.0 3:1.0 
-2.7777777777777772 1777:1.0 21:1.0 50:1.0 
-2.623456793572799 590:1.0 5:1.0 16:1.0 
-2.1262002896788346 2051:1.0 42:1.0 16:1.0 
-2.1262002896788346 31:1.0 21:1.0 26:1.0 
-4.626649707433214 89:1.0 42:1.0 249:1.0 
-2.7777777777777772 2189:1.0 21:1.0 16:1.0 
-2.7777777777777772 2211:1.0 21:1.0 327:1.0 
-2.160493840957865 1744:1.0 21:1.0 303:1.0 
-2.9320987619827554 2051:1.0 42:1.0 50:1.0 
-1.6118574356176454 104:1.0 122:1.0 74:1.0 
-4.329560983501915 646:1.0 122:1.0 74:1.0 
-2.9406721498025123 1551:1.0 122:1.0 74:1.0 
-1.6537113469778226 229:1.0 21:1.0 87:1.0 
-1.7803011261834936 384:1.0 21:1.0 3:1.0 
-2.3233882129826005 182:1.0 271:1.0 50:1.0 
-2.443891945221222 384:1.0 21:1.0 44:1.0 
-4.486531185252024 436:1.0 122:1.0 74:1.0 
-1.6803841092540728 997:1.0 21:1.0 16:1.0 
-4.687500098661981 77:1.0 72:1.0 16:1.0 
-3.651258658333567 20:1.0 21:1.0 50:1.0 
-2.1262002896788346 542:1.0 21:1.0 26:1.0 
-1.6596919696810062 82:1.0 21:1.0 303:1.0 
-2.7777777777777772 742:1.0 58:1.0 50:1.0 
-2.9320987619827554 2107:1.0 42:1.0 50:1.0 
-2.7777777777777772 182:1.0 271:1.0 16:1.0 
-1.6803841092540728 2809:1.0 21:1.0 16:1.0 
-2.160493840957865 315:1.0 42:1.0 50:1.0 
-2.1262002896788346 229:1.0 21:1.0 3:1.0 
-2.9320987619827554 697:1.0 122:1.0 74:1.0 
-2.1776406165973796 117:1.0 122:1.0 44:1.0 
-4.411779757083652 1022:1.0 122:1.0 74:1.0 
-2.7777777777778283 2919:1.0 122:1.0 74:1.0 
-1100.0 51:1.0 58:1.0 50:1.0 
-2.4100746932548653 216:1.0 122:1.0 44:1.0 
-2.160493840957865 758:1.0 42:1.0 50:1.0 
-1.8904321176290255 141:1.0 21:1.0 327:1.0 
-1.6433929223994872 38:1.0 21:1.0 327:1.0 
-1.5510450348694123 590:1.0 21:1.0 16:1.0 
-4.062499950930942 590:1.0 21:1.0 3:1.0 
-1.4079625410194267 729:1.0 42:1.0 33:1.0 
-2.623456793572799 1113:1.0 13:1.0 6:1.0 
-2.160493840957865 2407:1.0 42:1.0 50:1.0 
-2.4999997764825888 590:1.0 2:1.0 47:1.0 
-2.7777777777777772 2407:1.0 42:1.0 16:1.0 
-2.5161703713240318 82:1.0 21:1.0 130:1.0 
-1.4990666199630331 20:1.0 21:1.0 303:1.0 
-1.8796937271148204 1590:1.0 21:1.0 47:1.0 
-2.7777777777777772 3227:1.0 21:1.0 16:1.0 
-1.7890668567526395 12:1.0 48:1.0 327:1.0 
-1.596774464106147 998:1.0 271:1.0 50:1.0 
-2.3233882129826005 477:1.0 122:1.0 16:1.0 
-2.7777777777777772 1744:1.0 21:1.0 16:1.0 
-2.160493840957865 997:1.0 21:1.0 303:1.0 
-2.7777777777777772 997:1.0 21:1.0 74:1.0 
-2.7777777777778283 729:1.0 42:1.0 50:1.0 
-2.9320987619827554 229:1.0 21:1.0 44:1.0 
-4.41203671953321 2096:1.0 122:1.0 74:1.0 
-2.1262002896788346 154:1.0 21:1.0 3:1.0 
-1.8070797327490835 729:1.0 42:1.0 16:1.0 
-2.160493840957865 248:1.0 42:1.0 50:1.0 
-2.7777777777777772 248:1.0 42:1.0 16:1.0 
-1.6537113469778226 829:1.0 149:1.0 33:1.0 
-3.12499999126885 829:1.0 42:1.0 6:1.0 
-2.7777777777777772 1045:1.0 21:1.0 16:1.0 
-2.173830225772894 38:1.0 21:1.0 101:1.0 
-1.8689986481874237 590:1.0 2:1.0 101:1.0 
-1.6803841092540728 593:1.0 21:1.0 101:1.0 
-2.421108961046627 89:1.0 252:1.0 50:1.0 
-2.7777777777777772 163:1.0 122:1.0 74:1.0 
-1.4130906634478224 12:1.0 42:1.0 6:1.0 
-3.2986110980143866 38:1.0 21:1.0 53:1.0 
-2.1262002896788346 829:1.0 149:1.0 16:1.0 
-4.999999910593032 590:1.0 2:1.0 327:1.0 
-2.160493840957865 593:1.0 21:1.0 327:1.0 
-2.3233882129826005 729:1.0 42:1.0 6:1.0 
-2.7777777777777772 590:1.0 2:1.0 44:1.0 
-2.7777777777777772 593:1.0 21:1.0 44:1.0 
-1.6803841092540728 947:1.0 948:1.0 6:1.0 
-1.8904321176290255 297:1.0 21:1.0 327:1.0 
-2.0466820166096342 299:1.0 21:1.0 327:1.0 
-2.443891945221222 1590:1.0 21:1.0 327:1.0 
-2.160493840957865 1591:1.0 21:1.0 327:1.0 
-2.7777777777777772 1113:1.0 48:1.0 44:1.0 
-1.6550523152206909 12:1.0 42:1.0 16:1.0 
-1.8070797327490835 321:1.0 149:1.0 6:1.0 
-2.9320987619827554 829:1.0 149:1.0 6:1.0 
-4.416662043728646 945:1.0 122:1.0 74:1.0 
-1.94285150444886 998:1.0 271:1.0 6:1.0 
-2.3233882129826005 998:1.0 271:1.0 26:1.0 
-2.7777777777777772 315:1.0 42:1.0 16:1.0 
-2.9320987619827554 31:1.0 21:1.0 16:1.0 
-2.3233882129826005 321:1.0 149:1.0 16:1.0 
-2.7777777777777772 1590:1.0 21:1.0 16:1.0 
-2.7777777777777772 1591:1.0 21:1.0 16:1.0 
-2.9320987619827554 542:1.0 21:1.0 16:1.0 
-2.160493840957865 148:1.0 42:1.0 16:1.0 
-2.7777777777777772 321:1.0 149:1.0 50:1.0 
-1.5420191523889604 148:1.0 149:1.0 474:1.0 
-2.7777777777777772 959:1.0 122:1.0 74:1.0 
-1.9825960404102416 148:1.0 149:1.0 50:1.0 
-2.9044696801973195 259:1.0 122:1.0 74:1.0 
-2.9411484491151865 82:1.0 21:1.0 16:1.0 
-2.160493840957865 2809:1.0 21:1.0 44:1.0 
-2.391366917581411 12:1.0 42:1.0 44:1.0 
-2.9406721498025123 89:1.0 252:1.0 249:1.0 
-2.9320987619827554 216:1.0 122:1.0 74:1.0 
-2.7777777777777772 384:1.0 21:1.0 16:1.0 
-2.9320987619827554 1097:1.0 21:1.0 16:1.0 
-2.7777777777777772 477:1.0 122:1.0 74:1.0 
-3.12499999126885 148:1.0 149:1.0 16:1.0 
-1.6537113469778226 1046:1.0 21:1.0 87:1.0 
-1.777556685703664 1047:1.0 21:1.0 87:1.0 
-2.1262002896788346 1046:1.0 21:1.0 16:1.0 
-2.4562419276565 1047:1.0 21:1.0 16:1.0 
-2.9320987619827554 1046:1.0 21:1.0 3:1.0 
-2.7777777777777772 1047:1.0 21:1.0 3:1.0 
-2.7777777777777772 2809:1.0 21:1.0 130:1.0 
-2.9320987619827554 1094:1.0 21:1.0 16:1.0 
-2.160493840957865 141:1.0 21:1.0 6:1.0 
-2.160493840957865 297:1.0 21:1.0 101:1.0 
-2.160493840957865 299:1.0 21:1.0 101:1.0 
-2.7777777777777772 998:1.0 271:1.0 16:1.0 
-2.7777777777777772 297:1.0 21:1.0 16:1.0 
-2.7777777777777772 299:1.0 21:1.0 16:1.0 
-1.8991286116571404 12:1.0 13:1.0 9:1.0 
-1.946075829416406 191:1.0 21:1.0 47:1.0 
-1.6927103835101627 202:1.0 21:1.0 47:1.0 
-2.805105451412832 12:1.0 48:1.0 44:1.0 
-2.1262002896788346 191:1.0 21:1.0 74:1.0 
-2.9320987619827554 154:1.0 21:1.0 101:1.0 
-2.160493840957865 202:1.0 21:1.0 50:1.0 
-2.160493840957865 947:1.0 948:1.0 50:1.0 
-2.806712961588614 12:1.0 42:1.0 50:1.0 
-1100.0 729:1.0 42:1.0 50:1.0 
-2.7777777777777772 148:1.0 42:1.0 50:1.0 
-2.7777777777777772 947:1.0 948:1.0 16:1.0 
-2.9320987619827554 191:1.0 21:1.0 16:1.0 
-2.7777777777777772 117:1.0 122:1.0 74:1.0 
-2.7777777777777772 12:1.0 13:1.0 6:1.0 
-2.7777777777777772 141:1.0 21:1.0 130:1.0 
-2.7777777777777772 758:1.0 42:1.0 33:1.0 
-2.7777777777777772 202:1.0 21:1.0 16:1.0 
-2.7777777777777772 90:1.0 21:1.0 16:1.0 
