svm_type c_svc
kernel_type linear
nr_class 8
total_sv 597
rho -0.4741271119539049 -0.17891407761997155 -0.48837645176744676 -0.5669990111676347 -0.5222640833283745 -0.4686353810890941 -0.4 0.5902755746457646 -0.17497707898931247 0.16057502665124782 0.01479557676757017 -0.03221569757345272 -0.21739130434782616 -0.4303675551853394 -0.28363715396200817 -0.8029676855327823 -0.36143361212154623 -0.6470588235294117 0.43017676767676766 0.2847389662678919 0.3208705357142857 -0.47368421052631576 -0.031591105801843 -0.015437757844929897 -0.47368421052631576 0.045421652938807455 -0.6372549019607843 -0.3333333333333333
label 1 2 3 4 5 6 7 8
nr_sv 131 143 187 15 67 42 11 1
SV
0.0 0.2998808342781557 0.0 0.0 0.0 0.0 0.0 220:1.0 286:1.0 200:1.0 
0.0 0.11559999536376597 0.0 0.0 0.0 0.0 0.0 79:1.0 128:1.0 138:1.0 42:1.0 26:1.0 
0.0 0.0 0.0 0.21575373525496438 0.0 0.0 0.0 141:1.0 252:1.0 78:1.0 42:1.0 26:1.0 
0.0 0.0 0.0 0.16020372131968869 0.0 0.0 0.0 141:1.0 383:1.0 14:1.0 25:1.0 6:1.0 17:1.0 42:1.0 42:1.0 17:1.0 19:1.0 
0.0 0.0 0.0 0.0 0.13837146980004125 0.0 0.0 43:1.0 40:1.0 264:1.0 14:1.0 25:1.0 6:1.0 17:1.0 53:1.0 
0.09441771564592916 0.0 0.0 0.0 0.0 0.0 0.0 43:1.0 438:1.0 78:1.0 60:1.0 25:1.0 7:1.0 8:1.0 
0.0 0.1993339002267574 0.0 0.0 0.0 0.0 0.0 9:1.0 535:1.0 223:1.0 11:1.0 
0.0 0.11258282627222248 0.0 0.0 0.0 0.0 0.0 79:1.0 128:1.0 18:1.0 34:1.0 
0.0 0.07547311751048962 0.0 0.0 0.0 0.0 0.0 54:1.0 66:1.0 14:1.0 25:1.0 78:1.0 65:1.0 6:1.0 34:1.0 
0.0 1100.0 0.0 0.0 0.0 0.0 0.0 81:1.0 256:1.0 46:1.0 47:1.0 
0.0 0.0 0.0 0.2089273533278803 0.0 0.0 0.0 141:1.0 518:1.0 14:1.0 6:1.0 42:1.0 34:1.0 
0.0 0.38095238095238093 0.0 0.0 0.0 0.0 0.0 48:1.0 254:1.0 140:1.0 
0.0 0.0 0.0 0.1642819447234303 0.0 0.0 0.0 141:1.0 133:1.0 112:1.0 116:1.0 116:1.0 318:1.0 
0.0 0.12748381608234924 0.0 0.0 0.0 0.0 0.0 43:1.0 131:1.0 25:1.0 25:1.0 6:1.0 52:1.0 53:1.0 
0.0 0.0 0.0 0.2591297591297591 0.0 0.0 0.0 141:1.0 885:1.0 116:1.0 116:1.0 272:1.0 
0.0 0.0 0.0 0.2857142857142857 0.0 0.0 0.0 141:1.0 621:1.0 25:1.0 336:1.0 17:1.0 42:1.0 82:1.0 
0.0 0.0 0.0 0.3333333333333333 0.0 0.0 0.0 141:1.0 353:1.0 52:1.0 17:1.0 22:1.0 96:1.0 42:1.0 53:1.0 
0.13428688036857406 0.0 0.0 0.0 0.0 0.0 0.0 35:1.0 36:1.0 6:1.0 455:1.0 
0.0 0.0 0.0 0.11544149562924266 0.0 0.0 0.0 141:1.0 518:1.0 14:1.0 78:1.0 25:1.0 6:1.0 17:1.0 42:1.0 17:1.0 42:1.0 17:1.0 19:1.0 
0.0 0.0 0.0 0.03172953271437795 0.0 0.0 0.0 27:1.0 383:1.0 17:1.0 78:1.0 17:1.0 14:1.0 60:1.0 334:1.0 6:1.0 17:1.0 42:1.0 17:1.0 19:1.0 
0.0 0.0 0.0 0.1084464134114101 0.0 0.0 0.0 27:1.0 621:1.0 33:1.0 53:1.0 
0.0 0.0 0.0 0.0 0.22519068233353945 0.0 0.0 27:1.0 178:1.0 7:1.0 8:1.0 
0.0 0.0 0.0 0.0 0.1031052677481249 0.0 0.0 79:1.0 80:1.0 264:1.0 14:1.0 166:1.0 6:1.0 26:1.0 
0.0 0.0 0.0 0.09295437543810355 0.0 0.0 0.0 141:1.0 252:1.0 14:1.0 17:1.0 17:1.0 42:1.0 7:1.0 8:1.0 
0.0 0.0 0.0 0.24049024848717895 0.0 0.0 0.0 141:1.0 229:1.0 17:1.0 42:1.0 53:1.0 
0.0 0.0 0.0 0.2068117068117068 0.0 0.0 0.0 141:1.0 518:1.0 42:1.0 17:1.0 42:1.0 17:1.0 69:1.0 69:1.0 112:1.0 140:1.0 
0.0 0.0 0.0 0.0 0.1584003298289013 0.0 0.0 1:1.0 148:1.0 107:1.0 
0.0 0.0 0.0 0.054165301944093434 0.0 0.0 0.0 141:1.0 383:1.0 25:1.0 33:1.0 17:1.0 17:1.0 42:1.0 17:1.0 17:1.0 19:1.0 
0.0 0.0 0.0 0.0 0.22597402597402597 0.0 0.0 61:1.0 55:1.0 264:1.0 14:1.0 53:1.0 
0.0 0.0 0.0 0.632455720260032 0.0 0.0 0.0 141:1.0 142:1.0 42:1.0 53:1.0 
0.0 0.0 0.0 0.14451430762932801 0.0 0.0 0.0 9:1.0 687:1.0 107:1.0 
0.0 0.0 0.0 0.0 0.0 0.1578322327829231 0.0 79:1.0 924:1.0 25:1.0 25:1.0 17:1.0 19:1.0 
0.0 0.0 0.0 0.10433357424097282 0.0 0.0 0.0 141:1.0 229:1.0 31:1.0 17:1.0 42:1.0 17:1.0 19:1.0 
0.0 0.0 0.0 0.0 0.07717827367156933 0.0 0.0 27:1.0 911:1.0 1823:1.0 42:1.0 6:1.0 17:1.0 78:1.0 78:1.0 270:1.0 17:1.0 42:1.0 17:1.0 19:1.0 
0.0 0.07845498804840867 0.0 0.0 0.0 0.0 0.0 43:1.0 1902:1.0 14:1.0 17:1.0 25:1.0 6:1.0 17:1.0 17:1.0 19:1.0 
0.0 0.0 0.0 1100.0 0.0 0.0 0.0 141:1.0 142:1.0 52:1.0 138:1.0 42:1.0 53:1.0 
0.0 0.0 0.0 0.2976190476190476 0.0 0.0 0.0 141:1.0 142:1.0 96:1.0 42:1.0 42:1.0 53:1.0 
0.0 0.10628532862922546 0.0 0.0 0.0 0.0 0.0 43:1.0 1944:1.0 14:1.0 25:1.0 17:1.0 52:1.0 17:1.0 19:1.0 
0.0 0.0 0.0 0.07442545949692259 0.0 0.0 0.0 141:1.0 142:1.0 78:1.0 17:1.0 14:1.0 25:1.0 25:1.0 78:1.0 6:1.0 42:1.0 26:1.0 
0.0 0.0 0.2857142857142857 0.0 0.0 0.0 0.0 48:1.0 2081:1.0 3:1.0 
0.0 0.0 0.0 0.0 0.18583234946871308 0.0 0.0 9:1.0 1365:1.0 52:1.0 138:1.0 50:1.0 
0.0 0.4166666666666667 0.0 0.0 0.0 0.0 0.0 130:1.0 131:1.0 33:1.0 56:1.0 
0.0 0.1564421854600426 0.0 0.0 0.0 0.0 0.0 61:1.0 55:1.0 78:1.0 6:1.0 17:1.0 42:1.0 17:1.0 19:1.0 
0.0 0.0 0.0 0.08648863735417682 0.0 0.0 0.0 141:1.0 518:1.0 42:1.0 17:1.0 17:1.0 139:1.0 17:1.0 139:1.0 223:1.0 50:1.0 
0.0 0.0 0.0 0.20825247188290627 0.0 0.0 0.0 20:1.0 59:1.0 223:1.0 50:1.0 
0.0 0.0 0.0 0.3333333333333333 0.0 0.0 0.0 141:1.0 142:1.0 336:1.0 42:1.0 82:1.0 
0.0 0.0 0.0 0.5254890854068281 0.0 0.0 0.0 141:1.0 229:1.0 112:1.0 42:1.0 50:1.0 
0.11014890669738116 1100.0 0.0 0.0 0.10179883248065066 0.0 0.0 81:1.0 400:1.0 82:1.0 
0.0 0.0 0.0 0.32142857142857145 0.0 0.0 0.0 141:1.0 142:1.0 910:1.0 42:1.0 7:1.0 8:1.0 
0.0 0.1658140403979052 0.0 0.0 0.0 0.0 0.0 27:1.0 131:1.0 14:1.0 25:1.0 60:1.0 6:1.0 34:1.0 
0.0 0.0 0.0 0.19873560782651695 0.0 0.0 0.0 141:1.0 229:1.0 25:1.0 25:1.0 78:1.0 14:1.0 42:1.0 53:1.0 
0.0 0.0 0.09731286584433438 0.0 0.0 0.0 0.0 43:1.0 2702:1.0 69:1.0 42:1.0 96:1.0 46:1.0 47:1.0 
0.0 0.0 0.0 0.22127804855077582 0.0 0.0 0.0 141:1.0 518:1.0 60:1.0 18:1.0 17:1.0 42:1.0 53:1.0 
0.0 0.14242466524247988 0.0 0.0 0.0 0.0 0.0 79:1.0 128:1.0 25:1.0 39:1.0 455:1.0 
0.0 0.0 0.0 0.1509434953076994 0.0 0.0 0.0 141:1.0 383:1.0 25:1.0 14:1.0 154:1.0 6:1.0 17:1.0 42:1.0 34:1.0 
0.0 0.20803689531368105 0.0 0.0 0.0 0.0 0.0 27:1.0 193:1.0 14:1.0 455:1.0 
0.0 0.0 0.0 0.09775481405874965 0.0 0.0 0.0 141:1.0 383:1.0 14:1.0 25:1.0 78:1.0 17:1.0 42:1.0 26:1.0 
0.15978346070938665 0.0 0.0 0.0 0.0 0.0 0.0 247:1.0 438:1.0 25:1.0 6:1.0 42:1.0 53:1.0 
0.0 0.0 0.0 0.5817006403754991 0.0 0.0 0.0 141:1.0 142:1.0 112:1.0 42:1.0 53:1.0 
0.0 0.0 0.0 0.34134781738536685 0.0 0.0 0.0 141:1.0 229:1.0 42:1.0 42:1.0 865:1.0 
0.0 0.0 0.0 0.1705545044974613 0.0 0.0 0.0 43:1.0 142:1.0 96:1.0 69:1.0 3:1.0 
0.0 0.0 0.0 0.2222222222222222 0.0 0.0 0.0 141:1.0 2123:1.0 42:1.0 17:1.0 42:1.0 17:1.0 96:1.0 318:1.0 
0.0 0.0870245905702421 0.0 0.0 0.0 0.0 0.0 405:1.0 2848:1.0 78:1.0 78:1.0 53:1.0 
0.0 0.0 0.0 0.13384762487098886 0.0 0.0 0.0 141:1.0 383:1.0 17:1.0 33:1.0 39:1.0 17:1.0 19:1.0 
0.0 0.08551866885160271 0.0 0.0 0.0 0.0 0.0 9:1.0 2257:1.0 52:1.0 138:1.0 69:1.0 96:1.0 140:1.0 
0.0 0.0 0.0 0.12148767587044318 0.0 0.0 0.0 141:1.0 229:1.0 25:1.0 42:1.0 245:1.0 53:1.0 
0.0 0.0 0.0 0.1773715947297939 0.0 0.0 0.0 141:1.0 142:1.0 25:1.0 42:1.0 7:1.0 8:1.0 
0.0 0.0 0.0 0.0 0.06979423203090768 0.0 0.0 54:1.0 66:1.0 1823:1.0 18:1.0 17:1.0 78:1.0 25:1.0 33:1.0 25:1.0 6:1.0 42:1.0 34:1.0 
0.0 0.16051919054558653 0.0 0.0 0.0 0.0 0.0 1174:1.0 1566:1.0 219:1.0 
0.0 0.0 0.0 0.25 0.0 0.0 0.0 141:1.0 142:1.0 42:1.0 17:1.0 96:1.0 42:1.0 17:1.0 112:1.0 17:1.0 140:1.0 
0.0 0.0 0.0 0.13134718630892434 0.0 0.0 0.0 1:1.0 23:1.0 223:1.0 112:1.0 50:1.0 
0.0 0.0 0.0 0.1917351622844047 0.0 0.0 0.0 141:1.0 383:1.0 42:1.0 17:1.0 25:1.0 17:1.0 3:1.0 
0.0 0.0 0.0 0.0996796594150958 0.0 0.0 0.0 79:1.0 142:1.0 14:1.0 60:1.0 7:1.0 8:1.0 
0.0 0.2147969138052046 0.0 0.0 0.0 0.0 0.0 54:1.0 202:1.0 166:1.0 455:1.0 
0.0 0.25487834528492465 0.0 0.0 0.0 0.0 0.0 9:1.0 63:1.0 69:1.0 46:1.0 47:1.0 
0.0 0.0 0.0 0.0 0.0 0.14638447971781307 0.0 43:1.0 631:1.0 6:1.0 7:1.0 8:1.0 
0.0 0.0 0.0 0.0 0.0 0.11301613865716428 0.0 43:1.0 924:1.0 42:1.0 53:1.0 
0.0 0.0883314961787184 0.0 0.0 0.0 0.0 0.0 405:1.0 1150:1.0 74:1.0 17:1.0 25:1.0 78:1.0 6:1.0 17:1.0 19:1.0 
0.0 0.0 0.0 0.11723234625927542 0.0 0.0 0.0 79:1.0 353:1.0 7:1.0 8:1.0 
0.0 0.0 0.0 0.0 0.11311364372588863 0.0 0.0 48:1.0 2121:1.0 52:1.0 17:1.0 3:1.0 
0.0 0.0 0.0 0.08995601119807867 0.0 0.0 0.0 141:1.0 383:1.0 25:1.0 17:1.0 14:1.0 25:1.0 127:1.0 78:1.0 42:1.0 17:1.0 19:1.0 
0.12191409056763995 0.12539682539682542 0.0 0.0 0.0 0.0 0.0 405:1.0 406:1.0 14:1.0 18:1.0 53:1.0 
0.0 0.10453292241996005 0.0 0.3333333333333333 0.0 0.0 0.0 141:1.0 383:1.0 42:1.0 46:1.0 47:1.0 
0.0 0.09986892736892738 0.0 0.0 0.0 0.0 0.0 671:1.0 3140:1.0 69:1.0 22:1.0 50:1.0 
0.0 0.14443016474266474 0.0 0.0 0.0 0.0 0.0 671:1.0 489:1.0 17:1.0 17:1.0 50:1.0 
0.0 0.0 0.16825396825396824 0.0 0.0 0.0 0.0 1:1.0 3033:1.0 69:1.0 112:1.0 318:1.0 
0.0 0.0 0.0 0.4545454545454546 0.0 0.0 0.0 141:1.0 142:1.0 223:1.0 112:1.0 17:1.0 19:1.0 
0.0 0.0 0.0 0.28571428571428575 0.0 0.0 0.0 141:1.0 229:1.0 96:1.0 672:1.0 17:1.0 69:1.0 22:1.0 318:1.0 
0.0 0.33664021164021163 0.0 0.0 0.0 0.0 0.0 1:1.0 3198:1.0 318:1.0 
0.0 0.0 0.0 0.4 0.0 0.0 0.0 48:1.0 353:1.0 52:1.0 138:1.0 50:1.0 
0.0 0.0 0.0 0.07118684666637971 0.0 0.0 0.0 43:1.0 1973:1.0 17:1.0 166:1.0 6:1.0 17:1.0 17:1.0 19:1.0 
0.0 0.15569835257335257 0.0 0.06045496250834958 0.07247313247098586 0.0 0.0 671:1.0 1715:1.0 96:1.0 17:1.0 46:1.0 47:1.0 
0.0 0.09523809523809525 0.0 0.2408702408702409 0.0 0.0 0.0 141:1.0 229:1.0 42:1.0 17:1.0 17:1.0 69:1.0 318:1.0 
0.0 0.06342714305662663 0.0 0.06936716831575335 0.0604503988708735 0.0 0.0 405:1.0 3246:1.0 14:1.0 6:1.0 42:1.0 17:1.0 19:1.0 
0.09490740740740743 0.0 0.0 0.0 0.0 0.0 0.0 1:1.0 406:1.0 69:1.0 139:1.0 96:1.0 96:1.0 318:1.0 
0.0 0.15167278653885796 0.0 0.0 0.0 0.0 0.0 43:1.0 657:1.0 42:1.0 50:1.0 
0.0 0.14205522486772487 0.0 0.0 0.10966176680462396 0.0 0.0 35:1.0 36:1.0 14:1.0 60:1.0 78:1.0 65:1.0 264:1.0 14:1.0 6:1.0 26:1.0 
0.0 0.08447933312532846 0.0 0.0 0.0 0.0 0.0 247:1.0 3271:1.0 17:1.0 18:1.0 17:1.0 7:1.0 8:1.0 
0.3055555555555555 0.0 0.0 0.0 0.0 0.0 0.0 70:1.0 126:1.0 139:1.0 50:1.0 
0.0 0.11170018326327374 0.0 0.0 0.0 0.0 0.0 35:1.0 3284:1.0 25:1.0 6:1.0 53:1.0 
0.0 0.07944098209708525 0.0 0.0 0.0 0.0 0.0 247:1.0 3288:1.0 60:1.0 6:1.0 17:1.0 42:1.0 17:1.0 19:1.0 
0.0 0.14780231606526295 0.0 0.0 0.0 0.0 0.0 70:1.0 236:1.0 50:1.0 
0.0 0.08700956937799043 0.0 0.0 0.0 0.0 0.0 247:1.0 2497:1.0 60:1.0 17:1.0 42:1.0 17:1.0 42:1.0 17:1.0 19:1.0 
0.0 0.07706851143235072 0.0 0.11366686588807437 0.0 0.0 0.0 141:1.0 142:1.0 78:1.0 17:1.0 14:1.0 25:1.0 42:1.0 17:1.0 42:1.0 17:1.0 19:1.0 
0.0 0.1599449303530936 0.0 0.0 0.0 0.0 0.0 124:1.0 125:1.0 42:1.0 34:1.0 
0.0 0.13792493386243385 0.0 0.0679698279777257 0.0 0.0 0.0 35:1.0 481:1.0 14:1.0 17:1.0 42:1.0 17:1.0 19:1.0 
0.09953703703703705 0.2048611111111111 0.0 0.07939301127436581 0.08696775896518304 0.0 0.0 124:1.0 110:1.0 17:1.0 52:1.0 53:1.0 
0.0 0.07797540942975788 0.0 0.07065547975549945 0.08440928119499548 0.0 0.0 247:1.0 454:1.0 14:1.0 166:1.0 6:1.0 42:1.0 26:1.0 
0.10582010582010584 0.17777777777777776 0.0 0.09300972479512044 0.0 0.0 0.0 61:1.0 317:1.0 18:1.0 17:1.0 42:1.0 53:1.0 
0.10582010582010583 0.08293650793650792 0.0 0.08245941741751965 0.07178484865916228 0.07293699798630765 0.0 130:1.0 131:1.0 42:1.0 25:1.0 17:1.0 7:1.0 8:1.0 
0.0 0.0 0.0 0.14130272791548074 0.0 0.0 0.0 9:1.0 1459:1.0 69:1.0 69:1.0 3:1.0 
0.0 0.21254960317460317 0.0 0.0 0.0 0.0 0.0 48:1.0 508:1.0 50:1.0 
0.0 0.1977596734541179 0.0 0.0 0.0 0.0 0.0 101:1.0 1352:1.0 3:1.0 
0.08939676127652707 0.18181818181818182 0.0 0.11544318438452753 0.09566453486170133 0.10185185185185186 0.0 101:1.0 3336:1.0 52:1.0 138:1.0 50:1.0 
0.18071069305637208 0.2792308000641334 0.0 0.17645163360204816 0.10169520226714655 0.12996720679012344 0.0 1174:1.0 2380:1.0 219:1.0 
0.11538461538461539 0.1694889208429255 0.0 0.17645163360204813 0.0989010989010989 0.12996720679012347 0.0 220:1.0 1690:1.0 96:1.0 94:1.0 
0.10982700376763557 0.0788004109133733 0.0 0.11544318438452754 0.0 0.08333333333333333 0.0 54:1.0 2144:1.0 14:1.0 6:1.0 42:1.0 7:1.0 8:1.0 
0.0 0.09847761884813529 0.0 0.0 0.0 0.0 0.0 20:1.0 1296:1.0 139:1.0 318:1.0 
0.0 0.36111111111111116 0.0 0.0 0.0 0.0 0.0 1:1.0 1863:1.0 94:1.0 
0.0 0.0 0.0 0.0785984229074941 0.0 0.0 0.0 79:1.0 353:1.0 14:1.0 25:1.0 6:1.0 17:1.0 42:1.0 17:1.0 19:1.0 
0.0 0.15416845162938914 0.0 0.0 0.0 0.0 0.0 20:1.0 3352:1.0 50:1.0 
0.0 0.1559606481481481 0.0 0.0 0.0 0.0 0.0 70:1.0 147:1.0 3:1.0 
0.19400352733686071 0.0 0.08736263736263737 0.0 0.0 0.16483516483516483 0.0 9:1.0 3353:1.0 318:1.0 
0.0 0.18584535834535837 0.09953153123316294 0.06800522019063805 0.10523098834787147 0.14853395061728394 0.0 70:1.0 236:1.0 112:1.0 22:1.0 3:1.0 
0.11764705882352941 0.0 0.0 0.0 0.0 0.13451980118646786 0.0 48:1.0 3358:1.0 69:1.0 22:1.0 3:1.0 
0.1697530864197531 0.10963939594999973 0.10909090909090911 0.0 0.0906860815951725 0.1697530864197531 0.0 20:1.0 1549:1.0 69:1.0 112:1.0 3:1.0 
0.0 0.0 0.0 0.0 0.0 0.16975308641975312 0.0 1:1.0 3341:1.0 3:1.0 
0.20734126984126983 0.17401410245101195 0.14187094956325727 0.0 0.12193992515421088 0.0 0.0 79:1.0 1068:1.0 14:1.0 53:1.0 
0.02179553774706329 0.08959815523431594 0.09458063304217151 0.0 0.020219689607444705 0.06481481481481481 0.0 27:1.0 1429:1.0 14:1.0 138:1.0 42:1.0 17:1.0 42:1.0 17:1.0 19:1.0 
0.051282051282051266 0.07142857142857141 0.029120879120879115 0.10242517054381602 0.04395604395604395 0.04083001518898957 0.0 141:1.0 252:1.0 25:1.0 14:1.0 42:1.0 17:1.0 42:1.0 17:1.0 19:1.0 
0.11239521845458664 0.09473840613987297 0.0909090909090909 0.05166771772476092 0.11202394978727415 0.08770242103575435 0.1 43:1.0 3360:1.0 25:1.0 14:1.0 138:1.0 17:1.0 
-0.0 0.05937796602665724 0.0 0.0 0.0 0.0 0.0 4:1.0 103:1.0 33:1.0 60:1.0 270:1.0 42:1.0 17:1.0 42:1.0 17:1.0 17:1.0 42:1.0 17:1.0 17:1.0 42:1.0 17:1.0 17:1.0 19:1.0 
-0.0 0.0831438991023056 0.0 0.0 0.0 0.0 0.0 4:1.0 290:1.0 42:1.0 17:1.0 25:1.0 60:1.0 6:1.0 17:1.0 19:1.0 
-0.0 0.21517181174840172 0.0 0.0 0.0 0.0 0.0 4:1.0 290:1.0 25:1.0 7:1.0 8:1.0 
-0.0 0.11653594181344973 0.0 0.0 0.0 0.0 0.0 4:1.0 508:1.0 334:1.0 154:1.0 6:1.0 26:1.0 
-0.0 0.09859579527113246 0.0 0.0 0.0 0.0 0.0 4:1.0 340:1.0 33:1.0 60:1.0 18:1.0 42:1.0 17:1.0 19:1.0 
-0.0 0.0 0.0 0.0 0.08030357476750129 0.0 0.0 15:1.0 446:1.0 39:1.0 17:1.0 19:1.0 
-0.0 0.11452040662744238 0.0 0.0 0.0 0.0 0.0 4:1.0 295:1.0 60:1.0 6:1.0 42:1.0 26:1.0 
-0.0 0.11543104326593835 0.0 0.0 0.0 0.0 0.0 4:1.0 254:1.0 6:1.0 52:1.0 455:1.0 
-0.0 0.08433016704294326 0.0 0.0 0.0 0.0 0.0 4:1.0 304:1.0 74:1.0 17:1.0 25:1.0 60:1.0 6:1.0 52:1.0 17:1.0 19:1.0 
-0.0 0.2599315650007554 0.0 0.0 0.0 0.0 0.0 4:1.0 487:1.0 387:1.0 25:1.0 17:1.0 910:1.0 17:1.0 7:1.0 8:1.0 
-0.0 0.08126241399585489 0.0 0.0 0.0 0.0 0.0 4:1.0 156:1.0 74:1.0 17:1.0 25:1.0 25:1.0 60:1.0 18:1.0 26:1.0 
-0.0 0.08917830555267593 0.0 0.0 0.0 0.0 0.0 15:1.0 508:1.0 39:1.0 17:1.0 19:1.0 
-0.0 0.12742797260304267 0.0 0.0 0.0 0.0 0.0 4:1.0 156:1.0 33:1.0 127:1.0 25:1.0 18:1.0 26:1.0 
-0.0 0.19266073432740102 0.0 0.0 0.0 0.0 0.0 4:1.0 304:1.0 33:1.0 18:1.0 34:1.0 
-0.0 0.1328559181038685 0.0 0.0 0.0 0.0 0.0 4:1.0 508:1.0 33:1.0 26:1.0 
-0.0 0.30620302439395847 0.0 0.0 0.0 0.0 0.0 4:1.0 156:1.0 26:1.0 
-0.16666666666666666 0.0 0.0 0.0 0.0 0.0 0.0 15:1.0 406:1.0 56:1.0 
-0.0 0.06948001198437587 0.0 0.0 0.0 0.0 0.0 4:1.0 126:1.0 14:1.0 17:1.0 33:1.0 25:1.0 18:1.0 17:1.0 19:1.0 
-0.0 0.1738611959834361 0.0 0.0 0.0 0.0 0.0 4:1.0 508:1.0 60:1.0 7:1.0 50:1.0 
-0.0 0.1796135251322751 0.0 0.0 0.0 0.0 0.0 4:1.0 527:1.0 25:1.0 7:1.0 8:1.0 
-0.0 0.10342212956995855 0.0 0.0 0.0 0.0 0.0 4:1.0 657:1.0 60:1.0 6:1.0 26:1.0 
-0.0 0.13741490246100355 0.0 0.0 0.0 0.0 0.0 4:1.0 1493:1.0 455:1.0 
-0.0 0.1015923255379383 0.0 0.0 0.0 0.0 0.0 4:1.0 103:1.0 25:1.0 25:1.0 25:1.0 6:1.0 53:1.0 
-0.09441771564592916 0.12272942000061884 0.06006240061967616 0.09210526315789475 0.08744082428292954 0.07480626369515259 0.0 1822:1.0 1453:1.0 25:1.0 42:1.0 6:1.0 17:1.0 78:1.0 78:1.0 270:1.0 17:1.0 42:1.0 17:1.0 19:1.0 
-0.0 0.0 0.0 0.0 0.0 0.12130249099946071 0.0 15:1.0 1725:1.0 39:1.0 17:1.0 42:1.0 17:1.0 19:1.0 
-0.0 0.0764995149808125 0.0 0.0 0.0 0.0 0.0 4:1.0 295:1.0 25:1.0 33:1.0 25:1.0 42:1.0 34:1.0 
-0.0 0.0 0.0 0.0 0.0 0.12345679012345681 0.0 4:1.0 1725:1.0 78:1.0 17:1.0 78:1.0 17:1.0 25:1.0 910:1.0 14:1.0 6:1.0 17:1.0 19:1.0 
-0.0 0.18204929494860786 0.0 0.0 0.0 0.0 0.0 4:1.0 1364:1.0 25:1.0 60:1.0 6:1.0 42:1.0 34:1.0 
-0.0 0.10456246203280986 0.0 0.0 0.0 0.0 0.0 4:1.0 657:1.0 42:1.0 25:1.0 26:1.0 
-0.0 0.15567256086776476 0.0 0.0 0.0 0.0 0.0 4:1.0 508:1.0 25:1.0 25:1.0 18:1.0 26:1.0 
-0.0 0.10704365079365079 0.0 0.0 0.0 0.0 0.0 4:1.0 156:1.0 25:1.0 17:1.0 25:1.0 408:1.0 17:1.0 78:1.0 42:1.0 42:1.0 17:1.0 19:1.0 
-0.0 0.16291815029599332 0.0 0.0 0.0 0.0 0.0 4:1.0 1968:1.0 25:1.0 6:1.0 17:1.0 19:1.0 
-0.0 0.06992766071026711 0.0 0.0 0.0 0.0 0.0 4:1.0 527:1.0 18:1.0 14:1.0 25:1.0 154:1.0 6:1.0 52:1.0 17:1.0 19:1.0 
-0.0 0.1212148076383194 0.0 0.0 0.0 0.0 0.0 4:1.0 527:1.0 25:1.0 166:1.0 42:1.0 17:1.0 19:1.0 
-0.0 0.12645996753473834 0.0 0.0 0.0 0.0 0.0 4:1.0 99:1.0 42:1.0 17:1.0 78:1.0 17:1.0 25:1.0 127:1.0 910:1.0 14:1.0 42:1.0 18:1.0 17:1.0 19:1.0 
-0.0 0.07758044419406931 0.0 0.0 0.0 0.0 0.0 4:1.0 1968:1.0 408:1.0 25:1.0 6:1.0 17:1.0 19:1.0 
-0.0 0.09936694300471677 0.0 0.0 0.0 0.0 0.0 15:1.0 1968:1.0 6:1.0 17:1.0 42:1.0 17:1.0 19:1.0 
-0.0 0.059887133932125955 0.0 0.0 0.0 0.0 0.0 4:1.0 1968:1.0 25:1.0 17:1.0 33:1.0 60:1.0 60:1.0 17:1.0 42:1.0 17:1.0 19:1.0 
-0.12191409056763995 0.0 0.0 0.0 0.0 0.0 0.0 4:1.0 99:1.0 455:1.0 
-0.0 0.19676094494031438 0.0 0.0 0.0 0.0 0.0 4:1.0 1455:1.0 25:1.0 6:1.0 17:1.0 19:1.0 
-0.0 0.0 0.0 0.0 0.09973544973544975 0.0 0.0 4:1.0 2121:1.0 25:1.0 78:1.0 6:1.0 53:1.0 
-0.0 0.22044497277143477 0.0 0.0 0.0 0.0 0.0 4:1.0 527:1.0 25:1.0 60:1.0 6:1.0 53:1.0 
-0.0 0.08556247508240263 0.0 0.0 0.0 0.0 0.0 4:1.0 304:1.0 74:1.0 17:1.0 25:1.0 25:1.0 25:1.0 154:1.0 6:1.0 17:1.0 42:1.0 17:1.0 19:1.0 
-0.0 0.0 0.0 0.0 0.05973620046779547 0.0 0.0 4:1.0 363:1.0 6:1.0 52:1.0 17:1.0 19:1.0 
-0.0 0.10759743635796712 0.0 0.0 0.0 0.0 0.0 4:1.0 508:1.0 74:1.0 17:1.0 25:1.0 25:1.0 6:1.0 17:1.0 19:1.0 
-0.0 0.17494869952944914 0.0 0.0 0.0 0.0 0.0 4:1.0 508:1.0 6:1.0 17:1.0 52:1.0 17:1.0 19:1.0 
-0.18071069305637208 0.0 0.0 0.0 0.0 0.0 0.0 4:1.0 2348:1.0 455:1.0 
-0.15978346070938665 0.0 0.0 0.0 0.0 0.0 0.0 4:1.0 2441:1.0 8:1.0 
-0.0 0.13269670898175567 0.0 0.0 0.0 0.0 0.0 4:1.0 657:1.0 25:1.0 39:1.0 17:1.0 19:1.0 
-0.0 0.17182825930351978 0.0 0.0 0.0 0.0 0.0 4:1.0 527:1.0 25:1.0 78:1.0 6:1.0 53:1.0 
-0.0 0.14917061299221324 0.0 0.0 0.0 0.0 0.0 4:1.0 657:1.0 154:1.0 6:1.0 26:1.0 
-0.0 0.0 0.06951816144481063 0.0 0.0 0.0 0.0 4:1.0 1531:1.0 78:1.0 17:1.0 78:1.0 154:1.0 6:1.0 17:1.0 19:1.0 
-0.0 0.18295462214287925 0.0 0.0 0.0 0.0 0.0 4:1.0 304:1.0 78:1.0 17:1.0 25:1.0 25:1.0 910:1.0 14:1.0 154:1.0 17:1.0 19:1.0 
-0.0 0.0 0.08155380910798868 0.0 0.0 0.0 0.0 4:1.0 1531:1.0 25:1.0 387:1.0 17:1.0 25:1.0 25:1.0 78:1.0 6:1.0 53:1.0 
-0.0 0.0866264071271076 0.0 0.0 0.0 0.0 0.0 4:1.0 304:1.0 14:1.0 25:1.0 25:1.0 334:1.0 6:1.0 17:1.0 42:1.0 17:1.0 19:1.0 
-0.0 0.11456273302673052 0.0 0.0 0.0 0.0 0.0 4:1.0 508:1.0 78:1.0 25:1.0 154:1.0 6:1.0 26:1.0 
-0.0 0.17961352513227521 0.0 0.0 0.0 0.0 0.0 4:1.0 527:1.0 25:1.0 6:1.0 26:1.0 
-0.0 0.12780120333398964 0.0 0.0 0.0 0.0 0.0 4:1.0 527:1.0 387:1.0 60:1.0 26:1.0 
-0.0 0.14439263435598637 0.0 0.0 0.0 0.0 0.0 4:1.0 304:1.0 78:1.0 78:1.0 53:1.0 
-0.0 0.0 0.1556455240665767 0.0 0.0 0.0 0.0 4:1.0 2702:1.0 154:1.0 6:1.0 26:1.0 
-0.0 0.10069733427786903 0.0 0.0 0.0 0.0 0.0 4:1.0 99:1.0 14:1.0 17:1.0 25:1.0 18:1.0 17:1.0 19:1.0 
-0.0 0.1616524284823767 0.0 0.0 0.0 0.0 0.0 4:1.0 1436:1.0 25:1.0 25:1.0 17:1.0 19:1.0 
-0.0 0.11999351596299561 0.0 0.0 0.0 0.0 0.0 4:1.0 265:1.0 60:1.0 78:1.0 6:1.0 53:1.0 
-0.0 0.11492596990694545 0.0 0.0 0.0 0.0 0.0 4:1.0 265:1.0 25:1.0 42:1.0 17:1.0 60:1.0 6:1.0 17:1.0 19:1.0 
-0.0 0.2637785720536184 0.0 0.0 0.0 0.0 0.0 4:1.0 527:1.0 25:1.0 25:1.0 17:1.0 18:1.0 17:1.0 19:1.0 
-0.20734126984126983 0.0 0.0 0.0 0.0 0.0 0.0 4:1.0 2839:1.0 53:1.0 
-0.13194444444444445 0.0 0.0 0.0 0.0 0.0 0.0 4:1.0 2878:1.0 34:1.0 
-0.0 0.07247882650934685 0.0 0.0 0.0 0.0 0.0 4:1.0 156:1.0 78:1.0 25:1.0 60:1.0 6:1.0 42:1.0 53:1.0 
-0.0 0.4386352899996906 0.0 0.0 0.0 0.0 0.0 4:1.0 527:1.0 25:1.0 25:1.0 6:1.0 34:1.0 
-0.0 0.1210156228481326 0.0 0.0 0.0 0.0 0.0 15:1.0 607:1.0 78:1.0 17:1.0 127:1.0 42:1.0 17:1.0 19:1.0 
-0.0 0.19984500599141147 0.0 0.0 0.0 0.0 0.0 4:1.0 2965:1.0 42:1.0 42:1.0 25:1.0 53:1.0 
-0.19444444444444448 0.0 0.0 0.0 0.0 0.0 0.0 4:1.0 126:1.0 53:1.0 
-0.13428688036857406 0.0 0.0 0.0 0.0 0.0 0.0 15:1.0 400:1.0 6:1.0 26:1.0 
-0.11764705882352941 0.12412367724867725 0.09176788124156544 0.1118421052631579 0.10052910052910052 0.10781893004115227 0.0 1822:1.0 254:1.0 18:1.0 17:1.0 78:1.0 25:1.0 33:1.0 25:1.0 60:1.0 6:1.0 42:1.0 34:1.0 
-0.10582010582010584 0.0 0.0 0.0 0.0 0.0 0.0 15:1.0 1295:1.0 6:1.0 26:1.0 
-0.0 0.15095045098504098 0.0 0.0 0.0 0.0 0.0 4:1.0 1998:1.0 25:1.0 154:1.0 6:1.0 17:1.0 19:1.0 
-0.0 0.23534977044791852 0.0 0.0 0.0 0.0 0.0 4:1.0 2964:1.0 154:1.0 455:1.0 
-0.0 0.06959054491656069 0.0 0.0 0.0 0.0 0.0 4:1.0 340:1.0 60:1.0 39:1.0 17:1.0 52:1.0 17:1.0 42:1.0 17:1.0 19:1.0 
-0.10582010582010583 0.0 0.0 0.0 0.0 0.0 0.0 15:1.0 873:1.0 39:1.0 26:1.0 
-0.2222222222222222 0.0 0.0 0.0 0.0 0.0 0.0 4:1.0 3120:1.0 26:1.0 
-0.0 0.0 0.10804400278084487 0.0 0.0 0.0 0.0 15:1.0 3033:1.0 25:1.0 127:1.0 78:1.0 42:1.0 34:1.0 
-0.0 0.06974352329483424 0.0 0.0 0.0 0.0 0.0 4:1.0 527:1.0 17:1.0 42:1.0 17:1.0 17:1.0 17:1.0 19:1.0 
-0.19400352733686071 0.11599591588466444 0.0 0.0 0.0 0.0 0.0 15:1.0 438:1.0 78:1.0 53:1.0 
-0.1697530864197531 0.0 0.0 0.0 0.0 0.0 0.0 15:1.0 2357:1.0 39:1.0 53:1.0 
-0.0 0.04743665864011698 0.0 0.0 0.0 0.0 0.0 4:1.0 524:1.0 17:1.0 78:1.0 6:1.0 17:1.0 42:1.0 17:1.0 42:1.0 17:1.0 19:1.0 
-0.0 0.10085602558981702 0.0 0.0 0.0 0.0 0.0 4:1.0 2633:1.0 7:1.0 3:1.0 
-0.0 0.08714023400168247 0.0 0.0 0.0 0.0 0.0 4:1.0 3212:1.0 78:1.0 25:1.0 127:1.0 53:1.0 
-0.0 0.05669920896173724 0.0 0.0 0.0 0.0 0.0 4:1.0 1529:1.0 17:1.0 25:1.0 154:1.0 17:1.0 42:1.0 17:1.0 17:1.0 19:1.0 
-0.0 0.07432465443188505 0.0 0.0 0.0 0.0 0.0 4:1.0 2634:1.0 25:1.0 39:1.0 17:1.0 19:1.0 
-0.0 0.10474620997997491 0.0 0.0 0.0 0.0 0.0 4:1.0 2642:1.0 7:1.0 8:1.0 
-0.0 0.07861970319908428 0.0 0.0 0.0 0.0 0.0 4:1.0 2673:1.0 42:1.0 17:1.0 42:1.0 17:1.0 19:1.0 
-0.0 0.07104959630911188 0.0 0.0 0.0 0.0 0.0 4:1.0 568:1.0 387:1.0 17:1.0 52:1.0 17:1.0 19:1.0 
-0.0 0.12456747404844293 0.0 0.0 0.0 0.0 0.0 4:1.0 1493:1.0 42:1.0 60:1.0 39:1.0 138:1.0 52:1.0 42:1.0 53:1.0 
-0.0 0.07171233653675753 0.0 0.0 0.0 0.0 0.0 4:1.0 2145:1.0 33:1.0 39:1.0 17:1.0 42:1.0 17:1.0 19:1.0 
-0.0 0.17346246860135753 0.0 0.0 0.0 0.0 0.0 4:1.0 103:1.0 65:1.0 8:1.0 
-0.0 0.10843097626478282 0.0 0.0 0.0 0.0 0.0 4:1.0 527:1.0 334:1.0 6:1.0 53:1.0 
-0.0 0.09679629419022641 0.0 0.0 0.0 0.0 0.0 4:1.0 527:1.0 127:1.0 334:1.0 154:1.0 17:1.0 42:1.0 17:1.0 17:1.0 19:1.0 
-0.0 0.07124536446691754 0.0 0.0 0.0 0.0 0.0 4:1.0 338:1.0 33:1.0 39:1.0 17:1.0 19:1.0 
-0.0 0.17891048466092205 0.0 0.0 0.0 0.0 0.0 4:1.0 340:1.0 25:1.0 39:1.0 17:1.0 19:1.0 
-0.0 0.07651627778647108 0.0 0.0 0.0 0.0 0.0 4:1.0 76:1.0 25:1.0 25:1.0 33:1.0 17:1.0 19:1.0 
-0.0 0.0 0.0 0.04917756966526989 0.06620420279613544 0.0 0.0 15:1.0 99:1.0 17:1.0 25:1.0 17:1.0 39:1.0 17:1.0 19:1.0 
-0.0 0.19829506590552615 0.0 0.0 0.0 0.0 0.0 4:1.0 745:1.0 60:1.0 42:1.0 17:1.0 19:1.0 
-0.0 0.11508668767413847 0.0 0.0 0.0 0.0 0.0 4:1.0 86:1.0 7:1.0 8:1.0 
-0.0 0.1845915393832941 0.0 0.0 0.0 0.0 0.0 4:1.0 1660:1.0 25:1.0 127:1.0 42:1.0 17:1.0 17:1.0 19:1.0 
-0.0 0.07692307692307691 0.0 0.0 0.0 0.0 0.0 4:1.0 2635:1.0 25:1.0 60:1.0 39:1.0 17:1.0 52:1.0 26:1.0 
-0.0 0.0709317420917669 0.0 0.0 0.0 0.0 0.0 4:1.0 126:1.0 25:1.0 25:1.0 18:1.0 17:1.0 19:1.0 
-0.0 0.10745000586488437 0.0 0.0 0.0 0.0 0.0 4:1.0 329:1.0 25:1.0 6:1.0 26:1.0 
-0.0 0.10098370146734564 0.0 0.0 0.0 0.0 0.0 4:1.0 565:1.0 166:1.0 6:1.0 7:1.0 11:1.0 
-0.0 0.08930201565051817 0.0 0.11111111111111112 0.07592410344558573 0.09254386415094021 0.0 15:1.0 3252:1.0 39:1.0 17:1.0 19:1.0 
-0.0 0.11681274631204584 0.0 0.0 0.0 0.0 0.0 4:1.0 156:1.0 25:1.0 42:1.0 25:1.0 60:1.0 6:1.0 17:1.0 19:1.0 
-0.0 0.060465338428638576 0.0 0.0 0.0 0.0 0.0 4:1.0 2982:1.0 25:1.0 17:1.0 25:1.0 166:1.0 6:1.0 42:1.0 17:1.0 19:1.0 
-0.0 0.12756306951793064 0.0 0.0 0.0 0.0 0.0 4:1.0 2059:1.0 78:1.0 7:1.0 8:1.0 
-0.0 0.10508558934146404 0.0 0.11931462178172705 0.07423014607225134 0.08575210174536774 0.0 15:1.0 2357:1.0 39:1.0 17:1.0 19:1.0 
-0.3055555555555555 0.0 0.0 0.0 0.0 0.0 0.0 15:1.0 126:1.0 39:1.0 26:1.0 
-0.0 0.08479712755367079 0.0 0.0 0.0 0.0 0.0 4:1.0 3270:1.0 42:1.0 42:1.0 6:1.0 245:1.0 246:1.0 
-0.0 0.23101213125426082 0.0 0.0 0.0 0.0 0.0 4:1.0 265:1.0 25:1.0 33:1.0 6:1.0 26:1.0 
-0.0 0.0739861855792203 0.0 0.0 0.0 0.0 0.0 4:1.0 1788:1.0 25:1.0 25:1.0 166:1.0 17:1.0 42:1.0 17:1.0 19:1.0 
-0.0 0.1034731376452811 0.0 0.0 0.0 0.0 0.0 4:1.0 3153:1.0 25:1.0 25:1.0 6:1.0 53:1.0 
-0.0 0.14505025855082318 0.0 0.0 0.0 0.0 0.0 4:1.0 2540:1.0 18:1.0 455:1.0 
-0.0 0.13888888888888892 0.0 0.0 0.0 0.0 0.0 4:1.0 304:1.0 42:1.0 60:1.0 25:1.0 6:1.0 42:1.0 26:1.0 
-0.08939676127652707 0.11222222222222222 0.032360026168075706 0.056085588229466944 0.09523809523809523 0.03564285928739993 0.0 1822:1.0 2758:1.0 78:1.0 17:1.0 42:1.0 17:1.0 17:1.0 33:1.0 78:1.0 65:1.0 6:1.0 17:1.0 42:1.0 17:1.0 19:1.0 
-0.0 0.13885908923148937 0.0 0.0 0.0 0.0 0.0 4:1.0 1254:1.0 6:1.0 17:1.0 19:1.0 
-0.0 0.12712226800680296 0.054009744412221186 0.115829346092504 0.08772005772005771 0.09295691286071278 0.0 15:1.0 3294:1.0 127:1.0 78:1.0 42:1.0 53:1.0 
-0.0 0.1641572184429328 0.0 0.0 0.0 0.0 0.0 4:1.0 3309:1.0 17:1.0 26:1.0 
-0.0 0.08064541497352867 0.0 0.0 0.0 0.0 0.0 4:1.0 254:1.0 78:1.0 17:1.0 17:1.0 17:1.0 18:1.0 17:1.0 17:1.0 19:1.0 
-0.0 0.1861812379299094 0.0 0.0 0.0 0.0 0.0 4:1.0 2526:1.0 25:1.0 25:1.0 39:1.0 26:1.0 
-0.0 0.13410516452578347 0.0 0.0 0.0 0.0 0.0 4:1.0 508:1.0 25:1.0 6:1.0 42:1.0 17:1.0 19:1.0 
-0.0 0.14677372465148456 0.0 0.0 0.0 0.0 0.0 4:1.0 508:1.0 18:1.0 17:1.0 19:1.0 
-0.0 0.15046539954087762 0.0 0.0 0.0 0.0 0.0 4:1.0 3325:1.0 6:1.0 7:1.0 8:1.0 
-0.0 0.13333333333333336 0.0 0.0 0.0 0.0 0.0 4:1.0 3326:1.0 6:1.0 42:1.0 17:1.0 19:1.0 
-0.0 0.11764705882352944 0.0 0.0 0.0 0.0 0.0 4:1.0 3312:1.0 78:1.0 17:1.0 25:1.0 154:1.0 6:1.0 17:1.0 19:1.0 
-0.0 0.11111111111111113 0.0 0.0 0.0 0.0 0.0 4:1.0 103:1.0 78:1.0 25:1.0 154:1.0 6:1.0 17:1.0 42:1.0 17:1.0 19:1.0 
-0.0 0.09843957433430717 0.0 0.0 0.0 0.0 0.0 4:1.0 2363:1.0 78:1.0 17:1.0 25:1.0 17:1.0 42:1.0 17:1.0 19:1.0 
-0.0 0.27524663626504287 0.11721611721611722 0.19444444444444445 0.14583934583934585 0.21034685479129925 0.0 15:1.0 126:1.0 39:1.0 53:1.0 
-0.0 0.14285211890650618 0.08791208791208793 0.11111111111111109 0.11350158185093738 0.14423896414276402 0.0 15:1.0 716:1.0 39:1.0 17:1.0 19:1.0 
-0.0 0.13986291486291486 0.0 0.0 0.0 0.0 0.0 4:1.0 1863:1.0 60:1.0 6:1.0 42:1.0 7:1.0 8:1.0 
-0.0 0.13035345433669637 0.0 0.0 0.0 0.0 0.0 4:1.0 527:1.0 39:1.0 17:1.0 52:1.0 53:1.0 
-0.0 0.05575288913926402 0.0 0.06286971637848832 0.0 0.0 0.0 4:1.0 3339:1.0 25:1.0 78:1.0 6:1.0 17:1.0 42:1.0 17:1.0 19:1.0 
-0.0 0.18181818181818182 0.0 0.11892736892736894 0.08649841814906263 0.0 0.0 4:1.0 3335:1.0 25:1.0 39:1.0 53:1.0 
-0.0 0.18181818181818182 0.0 0.11111111111111112 0.08766646052360337 0.05694973330519267 0.0 4:1.0 1206:1.0 6:1.0 7:1.0 8:1.0 
-0.0 0.07692307692307694 0.0 0.10822510822510822 0.09206349206349207 0.07798325807945819 0.0 4:1.0 2397:1.0 78:1.0 17:1.0 25:1.0 6:1.0 17:1.0 19:1.0 
-0.0 0.25166511638760847 0.0 0.2380952380952381 0.18412698412698414 0.15736961451247167 0.0 4:1.0 1863:1.0 78:1.0 53:1.0 
-0.0 0.09930266572213098 0.07229234473816518 0.05555555555555554 0.05513708513708514 0.07370975380595388 0.08695652173913043 4:1.0 304:1.0 25:1.0 138:1.0 42:1.0 17:1.0 42:1.0 17:1.0 19:1.0 
-0.13729835388362938 -0.0 0.0 0.0 0.0 0.0 0.0 12:1.0 24:1.0 60:1.0 56:1.0 
-0.0 -0.05937796602665724 0.0 0.0 0.0 0.0 0.0 12:1.0 99:1.0 14:1.0 25:1.0 154:1.0 17:1.0 42:1.0 17:1.0 19:1.0 
-0.0 -0.15384615384615385 0.0 0.0 0.0 0.0 0.0 4:1.0 265:1.0 25:1.0 264:1.0 14:1.0 6:1.0 26:1.0 
-0.0 -0.22841058991352553 0.0 0.0 0.0 0.0 0.0 4:1.0 267:1.0 25:1.0 14:1.0 264:1.0 6:1.0 26:1.0 
-0.0 -0.3129698448695062 0.0 0.0 0.0 0.0 0.0 4:1.0 306:1.0 264:1.0 78:1.0 6:1.0 26:1.0 
-0.0 -0.23841892267479736 0.0 0.0 0.0 0.0 0.0 4:1.0 290:1.0 264:1.0 25:1.0 6:1.0 17:1.0 42:1.0 53:1.0 
-0.0 -0.0 0.0 0.0 0.0710592446245908 0.0 0.0 12:1.0 148:1.0 33:1.0 17:1.0 74:1.0 17:1.0 14:1.0 60:1.0 17:1.0 19:1.0 
-0.0 -0.0 0.0 0.0 0.09068266759224919 0.0 0.0 12:1.0 396:1.0 25:1.0 14:1.0 52:1.0 34:1.0 
-0.14242466524247988 -0.0 0.0 0.0 0.0 0.0 0.0 37:1.0 128:1.0 82:1.0 
-0.0 -0.04743665864011698 0.0 0.0 0.0 0.0 0.0 4:1.0 156:1.0 74:1.0 17:1.0 25:1.0 60:1.0 264:1.0 14:1.0 18:1.0 6:1.0 17:1.0 42:1.0 17:1.0 19:1.0 
-0.0 -0.12780120333398964 0.0 0.0 0.0 0.0 0.0 4:1.0 685:1.0 74:1.0 17:1.0 25:1.0 14:1.0 60:1.0 264:1.0 18:1.0 6:1.0 17:1.0 42:1.0 17:1.0 19:1.0 
-0.0 -0.10759743635796712 0.0 0.0 0.0 0.0 0.0 4:1.0 199:1.0 264:1.0 270:1.0 78:1.0 56:1.0 
-0.15569835257335257 -0.0 0.0 0.0 0.0 0.0 0.0 12:1.0 51:1.0 78:1.0 65:1.0 53:1.0 
-0.0 -0.19266073432740102 0.0 0.0 0.0 0.0 0.0 4:1.0 103:1.0 264:1.0 6:1.0 7:1.0 8:1.0 
-0.0 -0.13986291486291486 0.0 0.0 0.12851341818622247 0.0 0.0 4:1.0 156:1.0 25:1.0 25:1.0 264:1.0 14:1.0 25:1.0 166:1.0 26:1.0 
-0.19603497944970394 -0.0 0.0 0.0 0.0 0.0 0.0 29:1.0 63:1.0 56:1.0 
-0.15167278653885796 -0.0 0.0 0.0 0.0 0.0 0.0 37:1.0 131:1.0 25:1.0 34:1.0 
-0.0 -0.0 0.0 0.0 0.08073190392219863 0.0 0.0 12:1.0 446:1.0 14:1.0 25:1.0 17:1.0 19:1.0 
-0.17777777777777776 -0.6268379450288791 0.0 0.0 0.0 0.0 0.0 4:1.0 156:1.0 264:1.0 26:1.0 
-0.0 -0.35785987523243834 0.0 0.0 0.0 0.0 0.0 4:1.0 1124:1.0 264:1.0 6:1.0 7:1.0 8:1.0 
-0.0 -0.0 0.0 0.0 0.19321730725440622 0.0 0.0 12:1.0 631:1.0 25:1.0 26:1.0 
-0.0 -0.0 0.0 0.0 0.05369288069018204 0.0 0.0 12:1.0 396:1.0 25:1.0 17:1.0 78:1.0 17:1.0 14:1.0 60:1.0 334:1.0 17:1.0 42:1.0 17:1.0 19:1.0 
-0.0883314961787184 -0.0 0.0 0.0 0.0 0.0 0.0 108:1.0 1150:1.0 129:1.0 
-0.0 -0.0 0.0 0.0 0.31464495688155264 0.0 0.0 12:1.0 310:1.0 26:1.0 
-0.0 -0.12412367724867725 0.0 0.0 0.0 0.0 0.0 12:1.0 508:1.0 25:1.0 53:1.0 
-1100.0 -0.0 0.0 0.0 0.0 0.0 0.0 81:1.0 256:1.0 46:1.0 47:1.0 
-0.0 -0.2829053205384249 0.0 0.0 0.0 0.0 0.0 4:1.0 434:1.0 264:1.0 14:1.0 6:1.0 7:1.0 8:1.0 
-0.0 -0.0 0.0 0.0 0.13182736758934174 0.0 0.0 12:1.0 211:1.0 56:1.0 
-0.0 -0.0 0.0 0.0 0.21245370947696776 0.0 0.0 12:1.0 148:1.0 14:1.0 154:1.0 53:1.0 
-0.0 -0.1034731376452811 0.0 0.0 0.0 0.0 0.0 4:1.0 265:1.0 60:1.0 264:1.0 14:1.0 6:1.0 52:1.0 26:1.0 
-0.0 -0.07697694285787617 0.0 0.0 0.0 0.0 0.0 4:1.0 508:1.0 14:1.0 60:1.0 264:1.0 6:1.0 52:1.0 26:1.0 
-0.0 -0.3724369304820694 0.0 0.0 0.0 0.0 0.0 4:1.0 1340:1.0 264:1.0 6:1.0 53:1.0 
-0.0 -0.2920415452481785 0.0 0.0 0.0 0.0 0.0 4:1.0 1364:1.0 264:1.0 78:1.0 166:1.0 6:1.0 26:1.0 
-0.0 -0.0 0.0 0.0 0.27020966013153513 0.0 0.0 12:1.0 148:1.0 7:1.0 140:1.0 
-0.0 -0.19603327717313218 0.0 0.0 0.0 0.0 0.0 4:1.0 1399:1.0 264:1.0 14:1.0 78:1.0 25:1.0 166:1.0 6:1.0 53:1.0 
-0.0 -0.17891048466092205 0.0 0.0 0.0 0.0 0.0 4:1.0 607:1.0 14:1.0 264:1.0 78:1.0 25:1.0 166:1.0 6:1.0 53:1.0 
-0.0 -0.3901457227996733 0.0 0.0 0.0 0.0 0.0 4:1.0 657:1.0 264:1.0 78:1.0 166:1.0 56:1.0 
-0.0 -0.0 0.0 0.0 0.12520667165801308 0.0 0.0 29:1.0 1424:1.0 14:1.0 17:1.0 14:1.0 33:1.0 25:1.0 17:1.0 19:1.0 
-0.0 -0.15095045098504098 0.0 0.0 0.0 0.0 0.0 4:1.0 265:1.0 25:1.0 60:1.0 264:1.0 14:1.0 17:1.0 18:1.0 34:1.0 
-0.0 -0.24606204939829893 0.0 0.0 0.0 0.0 0.0 4:1.0 340:1.0 25:1.0 14:1.0 60:1.0 264:1.0 17:1.0 18:1.0 34:1.0 
-0.08700956937799043 -0.0 0.0 0.07836734693877552 0.0 0.0 0.0 1452:1.0 1453:1.0 408:1.0 17:1.0 910:1.0 18:1.0 17:1.0 78:1.0 17:1.0 19:1.0 
-0.1857263107263107 -0.0 0.0 0.0 0.0 0.0 0.0 108:1.0 254:1.0 129:1.0 
-0.0 -0.19889212848032797 0.0 0.0 0.0 0.0 0.0 4:1.0 1436:1.0 17:1.0 264:1.0 14:1.0 78:1.0 6:1.0 42:1.0 42:1.0 297:1.0 
-0.0 -0.18869665513264133 0.0 0.0 0.0 0.0 0.0 4:1.0 1493:1.0 17:1.0 14:1.0 264:1.0 78:1.0 6:1.0 42:1.0 42:1.0 297:1.0 
-0.0 -0.17346246860135753 0.0 0.0 0.0 0.0 0.0 4:1.0 1601:1.0 78:1.0 17:1.0 25:1.0 910:1.0 25:1.0 42:1.0 6:1.0 53:1.0 
-0.11559999536376597 -0.30728687824720724 0.0 0.0 0.0 0.0 0.0 4:1.0 527:1.0 65:1.0 264:1.0 53:1.0 
-0.0 -0.0709317420917669 0.0 0.0 0.0 0.0 0.0 12:1.0 304:1.0 14:1.0 25:1.0 78:1.0 25:1.0 154:1.0 42:1.0 17:1.0 17:1.0 17:1.0 19:1.0 
-0.07547311751048962 -0.0 0.0 0.0 0.0 0.0 0.0 1452:1.0 86:1.0 25:1.0 78:1.0 17:1.0 910:1.0 154:1.0 42:1.0 53:1.0 
-0.0 -0.18181818181818182 0.0 0.0 0.0 0.0 0.0 4:1.0 1833:1.0 25:1.0 25:1.0 264:1.0 14:1.0 6:1.0 53:1.0 
-0.0 -0.18181818181818182 0.0 0.0 0.0 0.0 0.0 4:1.0 1838:1.0 25:1.0 14:1.0 25:1.0 264:1.0 6:1.0 53:1.0 
-0.0 -0.0 0.0 0.0 0.13558768262964752 0.0 0.0 273:1.0 199:1.0 25:1.0 7:1.0 8:1.0 
-0.0 -0.11222222222222222 0.0 0.0 0.0 0.0 0.0 75:1.0 716:1.0 31:1.0 17:1.0 19:1.0 
-0.0 -0.0 0.0 0.0 0.0 0.14690500685871058 0.0 12:1.0 1725:1.0 154:1.0 17:1.0 17:1.0 56:1.0 
-0.0 -0.0 0.0 0.0 0.098216449456669 0.0 0.0 12:1.0 1499:1.0 14:1.0 154:1.0 17:1.0 42:1.0 17:1.0 42:1.0 17:1.0 19:1.0 
-0.0 -0.0 0.0 0.0 0.1488396852678393 0.0 0.0 108:1.0 269:1.0 129:1.0 
-0.0 -0.15567256086776476 0.0 0.0 0.0 0.0 0.0 4:1.0 527:1.0 264:1.0 14:1.0 387:1.0 17:1.0 19:1.0 
-0.0 -0.13269670898175567 0.0 0.0 0.0 0.0 0.0 4:1.0 508:1.0 14:1.0 264:1.0 387:1.0 17:1.0 19:1.0 
-0.0 -0.09679629419022641 0.0 0.0 0.0 0.0 0.0 4:1.0 527:1.0 25:1.0 25:1.0 264:1.0 14:1.0 334:1.0 154:1.0 6:1.0 17:1.0 19:1.0 
-0.0 -0.13333333333333336 0.0 0.0 0.0 0.0 0.0 4:1.0 1998:1.0 25:1.0 14:1.0 25:1.0 264:1.0 334:1.0 154:1.0 6:1.0 17:1.0 19:1.0 
-0.0 -0.45006275554792285 0.0 0.0 0.0 0.0 0.0 4:1.0 1968:1.0 25:1.0 264:1.0 166:1.0 53:1.0 
-0.0 -0.0 0.0 0.0 0.2330694738489315 0.0 0.0 12:1.0 446:1.0 154:1.0 56:1.0 
-0.0 -0.3592270502645503 0.0 0.0 0.0 0.0 0.0 4:1.0 527:1.0 25:1.0 264:1.0 154:1.0 53:1.0 
-0.0 -0.0 0.0 0.0 0.10479779494960803 0.0 0.0 75:1.0 2091:1.0 14:1.0 25:1.0 53:1.0 
-0.15416845162938914 -0.31990031507538513 0.0 0.0 0.0 0.0 0.0 4:1.0 2074:1.0 264:1.0 6:1.0 53:1.0 
-0.0 -0.40817120640960475 0.0 0.0 0.0 0.0 0.0 4:1.0 527:1.0 25:1.0 910:1.0 17:1.0 19:1.0 
-0.0 -0.5613647100003094 0.0 0.0 0.0 0.0 0.0 4:1.0 527:1.0 25:1.0 25:1.0 910:1.0 34:1.0 
-0.18181818181818182 -0.0 0.0 0.14693877551020407 0.0 0.0985462748628258 0.0 1452:1.0 527:1.0 910:1.0 14:1.0 6:1.0 26:1.0 
-0.0 -0.11508668767413847 0.0 0.0 0.0 0.0 0.0 4:1.0 103:1.0 25:1.0 6:1.0 25:1.0 910:1.0 53:1.0 
-0.0 -0.15046539954087762 0.0 0.0 0.0 0.0 0.0 4:1.0 508:1.0 25:1.0 264:1.0 17:1.0 6:1.0 17:1.0 53:1.0 
-0.0 -0.0 0.0 0.0 0.1750782788927994 0.0 0.0 12:1.0 2177:1.0 245:1.0 246:1.0 
-0.0 -0.27639072133632964 0.0 0.0 0.0 0.0 0.0 4:1.0 527:1.0 25:1.0 25:1.0 910:1.0 42:1.0 53:1.0 
-0.14205522486772487 -0.0 0.0 0.0 0.0 0.0 0.0 273:1.0 1690:1.0 25:1.0 14:1.0 25:1.0 53:1.0 
-0.0 -0.0 0.0 0.13542011857190428 0.0 0.0 0.0 29:1.0 1973:1.0 14:1.0 26:1.0 
-0.28571428571428575 -0.0 0.0 0.0 0.0 0.0 0.0 12:1.0 236:1.0 26:1.0 
-0.0 -0.0 0.0 0.0 0.21932173072544062 0.0 0.0 12:1.0 1807:1.0 56:1.0 
-0.2222222222222222 -0.509046100702596 0.0 0.0 0.0 0.0 0.0 4:1.0 508:1.0 264:1.0 26:1.0 
-0.0 -0.08126241399585489 0.0 0.0 0.0 0.0 0.0 4:1.0 508:1.0 60:1.0 264:1.0 42:1.0 6:1.0 17:1.0 42:1.0 26:1.0 
-0.0 -0.30416942978119865 0.0 0.0 0.0 0.0 0.0 4:1.0 2363:1.0 264:1.0 154:1.0 6:1.0 53:1.0 
-0.08551866885160271 -0.0 0.0 0.0 0.0 0.0 0.0 81:1.0 125:1.0 138:1.0 42:1.0 82:1.0 
-0.0 -0.0 0.0 0.0 0.22124537094769678 0.0 0.0 12:1.0 1906:1.0 14:1.0 42:1.0 53:1.0 
-0.0 -0.33270092409527996 0.0 0.0 0.0 0.0 0.0 4:1.0 1660:1.0 25:1.0 264:1.0 154:1.0 6:1.0 53:1.0 
-0.0 -0.0 0.0 0.0 0.2129343903645374 0.0 0.0 12:1.0 2121:1.0 42:1.0 14:1.0 166:1.0 56:1.0 
-0.0 -0.0 0.0 0.0 0.125022963517557 0.1000055114638448 0.0 29:1.0 631:1.0 14:1.0 60:1.0 14:1.0 18:1.0 17:1.0 42:1.0 17:1.0 19:1.0 
-0.0 -0.186171334373863 0.0 0.0 0.0 0.0 0.0 4:1.0 1455:1.0 25:1.0 17:1.0 14:1.0 33:1.0 264:1.0 78:1.0 25:1.0 17:1.0 42:1.0 17:1.0 19:1.0 
-0.0 -0.27524663626504287 0.0 0.0 0.0 0.0 0.0 81:1.0 126:1.0 82:1.0 
-0.1564421854600426 -0.0 0.0 0.0 0.0 0.0 0.0 12:1.0 16:1.0 25:1.0 14:1.0 78:1.0 17:1.0 42:1.0 17:1.0 19:1.0 
-0.0 -0.060465338428638576 0.0 0.0 0.0 0.0 0.0 4:1.0 304:1.0 17:1.0 74:1.0 17:1.0 25:1.0 14:1.0 25:1.0 264:1.0 42:1.0 17:1.0 6:1.0 17:1.0 17:1.0 42:1.0 17:1.0 17:1.0 19:1.0 
-0.1658140403979052 -0.0 0.0 0.0 0.0 0.0 0.0 29:1.0 131:1.0 14:1.0 25:1.0 33:1.0 53:1.0 
-0.0 -0.0 0.10459183673469387 0.0 0.0 0.0 0.0 75:1.0 2702:1.0 17:1.0 33:1.0 17:1.0 33:1.0 17:1.0 297:1.0 
-0.4378057681405896 -0.11599591588466444 0.0 0.0 0.0 0.0 0.0 273:1.0 286:1.0 455:1.0 
-0.0 -0.0 0.0 0.0 0.0 0.3333333333333333 0.0 37:1.0 1753:1.0 82:1.0 
-0.0 -0.0 0.0 0.0 0.08562512881055559 0.0 0.0 273:1.0 286:1.0 25:1.0 25:1.0 56:1.0 
-0.0 -0.0 0.0 0.0 0.0 0.1878858024691358 0.0 456:1.0 631:1.0 129:1.0 
-0.0 -0.08556247508240263 0.0 0.0 0.0 0.0 0.0 4:1.0 304:1.0 74:1.0 17:1.0 17:1.0 25:1.0 910:1.0 6:1.0 42:1.0 17:1.0 17:1.0 19:1.0 
-0.0 -0.0739861855792203 0.0 0.0 0.0 0.0 0.0 12:1.0 508:1.0 14:1.0 42:1.0 25:1.0 25:1.0 17:1.0 52:1.0 17:1.0 19:1.0 
-0.0 -0.0 0.0 0.0 0.22355463679498602 0.0 0.0 12:1.0 2000:1.0 25:1.0 53:1.0 
-0.16051919054558653 -0.0 0.0 0.0 0.0 0.0 0.0 75:1.0 1945:1.0 53:1.0 
-0.0 -0.2 0.0 0.0 0.0 0.0 0.0 12:1.0 304:1.0 53:1.0 
-0.0 -0.0 0.0 0.0 0.05470534093810856 0.0 0.0 273:1.0 93:1.0 42:1.0 17:1.0 33:1.0 17:1.0 14:1.0 25:1.0 60:1.0 78:1.0 42:1.0 17:1.0 19:1.0 
-0.0 -0.0 0.0 0.11310904571618859 0.0 0.0 0.0 37:1.0 687:1.0 17:1.0 19:1.0 
-0.0 -0.0 0.0 0.0 0.11818557243444189 0.0 0.0 12:1.0 446:1.0 78:1.0 17:1.0 17:1.0 19:1.0 
-0.14780231606526295 -0.0 0.0 0.0 0.0 0.0 0.0 29:1.0 128:1.0 34:1.0 
-0.0 -0.0 0.0 0.0 0.11343647725347066 0.0 0.0 12:1.0 508:1.0 1823:1.0 18:1.0 17:1.0 78:1.0 25:1.0 33:1.0 25:1.0 60:1.0 42:1.0 34:1.0 
-0.14443016474266474 -0.3768820861678005 0.0 0.0 0.0 0.0 0.0 4:1.0 1610:1.0 264:1.0 17:1.0 19:1.0 
-0.0 -0.1616524284823767 0.0 0.0 0.0 0.0 0.0 4:1.0 304:1.0 264:1.0 14:1.0 154:1.0 6:1.0 17:1.0 19:1.0 
-0.0 -0.07171233653675753 0.0 0.0 0.0 0.0 0.0 4:1.0 126:1.0 14:1.0 264:1.0 154:1.0 6:1.0 17:1.0 19:1.0 
-0.0 -0.28747337145820206 0.0 0.0 0.0 0.0 0.0 4:1.0 2965:1.0 264:1.0 25:1.0 78:1.0 17:1.0 19:1.0 
-0.0 -0.20343915343915345 0.0 0.0 0.0 0.0 0.0 81:1.0 508:1.0 82:1.0 
-0.2147969138052046 -0.0 0.0 0.0 0.0 0.0 0.0 75:1.0 657:1.0 26:1.0 
-0.0 -0.2822294264281331 0.0 0.0 0.0 0.0 0.0 4:1.0 745:1.0 25:1.0 78:1.0 264:1.0 25:1.0 53:1.0 
-0.0 -0.0 0.0 0.0 0.2766167987955671 0.0 0.0 12:1.0 363:1.0 14:1.0 455:1.0 
-1100.0 -0.0 0.0 0.0 0.0 0.0 0.0 81:1.0 400:1.0 82:1.0 
-0.0 -0.0 0.25 0.0 0.0 0.0 0.0 12:1.0 2081:1.0 7:1.0 8:1.0 
-0.0 -0.0 0.0 0.0 0.12178183839857895 0.0 0.0 4:1.0 226:1.0 65:1.0 264:1.0 14:1.0 78:1.0 25:1.0 42:1.0 166:1.0 26:1.0 
-0.0 -0.13888888888888892 0.0 0.0 0.0 0.0 0.0 4:1.0 3155:1.0 14:1.0 65:1.0 264:1.0 78:1.0 25:1.0 42:1.0 166:1.0 26:1.0 
-0.20803689531368105 -0.0 0.0 0.0 0.0 0.0 0.0 37:1.0 3147:1.0 82:1.0 
-0.0 -0.0 0.0 0.0 0.12934390364537424 0.0 0.0 4:1.0 226:1.0 65:1.0 264:1.0 14:1.0 78:1.0 17:1.0 25:1.0 42:1.0 166:1.0 26:1.0 
-0.0 -0.0 0.0 0.0 0.05293368702746141 0.0 0.0 29:1.0 3158:1.0 78:1.0 17:1.0 14:1.0 25:1.0 17:1.0 19:1.0 
-0.0 -0.0 0.0 0.0 0.10401515151515156 0.0 0.0 29:1.0 3161:1.0 14:1.0 25:1.0 455:1.0 
-0.16499999999999998 -0.0 0.0 0.0 0.0 0.0 0.0 37:1.0 3168:1.0 82:1.0 
-0.1559606481481481 -0.0 0.0 0.0 0.0 0.0 0.0 456:1.0 2257:1.0 123:1.0 
-0.1619047619047619 -0.0 0.0 0.0 0.0 0.0 0.0 75:1.0 524:1.0 53:1.0 
-0.33664021164021163 -0.13885908923148937 0.0 0.22040816326530613 0.28125 0.16666666666666666 0.0 273:1.0 1944:1.0 56:1.0 
-0.0 -0.2592788665723924 0.0 0.0 0.0 0.0 0.0 4:1.0 295:1.0 264:1.0 42:1.0 42:1.0 7:1.0 8:1.0 
-0.38095238095238093 -0.0 0.0 0.0 0.0 0.0 0.0 75:1.0 3198:1.0 53:1.0 
-0.625 -0.19676094494031438 0.0 0.0 0.0 0.0 0.0 29:1.0 131:1.0 56:1.0 
-0.0 -0.0 0.0 0.0 0.06884382938720811 0.0 0.0 29:1.0 3251:1.0 14:1.0 25:1.0 25:1.0 17:1.0 19:1.0 
-0.0 -0.0 0.0 0.0 0.20251469817086878 0.0 0.0 12:1.0 542:1.0 25:1.0 25:1.0 25:1.0 17:1.0 19:1.0 
-0.0 -0.0 0.0 0.0 0.06802374826416241 0.0 0.0 29:1.0 420:1.0 42:1.0 17:1.0 14:1.0 17:1.0 19:1.0 
-0.21254960317460317 -0.0 0.0 0.0 0.0 0.0 0.0 456:1.0 1902:1.0 129:1.0 
-0.0 -0.11111111111111113 0.0 0.0 0.0 0.0 0.0 4:1.0 304:1.0 33:1.0 60:1.0 78:1.0 65:1.0 264:1.0 14:1.0 6:1.0 26:1.0 
-0.0 -0.0 0.0 0.0 0.17262175324675327 0.0 0.0 4:1.0 156:1.0 264:1.0 14:1.0 166:1.0 7:1.0 8:1.0 
-0.0 -0.18295462214287925 0.0 0.0 0.0 0.0 0.0 4:1.0 304:1.0 14:1.0 264:1.0 166:1.0 7:1.0 8:1.0 
-0.0 -0.08064541497352867 0.0 0.06593406593406594 0.0 0.0 0.0 4:1.0 304:1.0 14:1.0 33:1.0 60:1.0 78:1.0 65:1.0 264:1.0 6:1.0 26:1.0 
-0.0 -0.0 0.0 0.0 0.09630681818181822 0.0 0.0 29:1.0 3262:1.0 14:1.0 25:1.0 17:1.0 19:1.0 
-0.0 -0.0 0.0 0.0 0.07836423758344527 0.0 0.0 29:1.0 3272:1.0 334:1.0 17:1.0 17:1.0 7:1.0 8:1.0 
-0.2048611111111111 -0.0 0.0 0.0 0.0 0.0 0.0 456:1.0 535:1.0 129:1.0 
-0.0 -0.0 0.0 0.0 0.125 0.0 0.0 29:1.0 2232:1.0 14:1.0 455:1.0 
-0.18333333333333335 -0.0 0.0 0.0 0.0 0.0 0.0 37:1.0 3285:1.0 82:1.0 
-0.0 -0.0 0.0 0.0 0.05837992601445161 0.0 0.0 12:1.0 3289:1.0 60:1.0 334:1.0 17:1.0 42:1.0 17:1.0 19:1.0 
-0.0 -0.0 0.0 0.0 0.10516923489843223 0.0 0.0 12:1.0 3291:1.0 60:1.0 53:1.0 
-0.0 -0.0 0.0 0.0 0.10258856868675562 0.0 0.0 12:1.0 2506:1.0 14:1.0 17:1.0 19:1.0 
-0.0 -0.0 0.0 0.0 0.09681710523055374 0.0 0.0 12:1.0 556:1.0 42:1.0 17:1.0 17:1.0 19:1.0 
-0.0 -0.0 0.0 0.0 0.08205128205128204 0.0 0.0 12:1.0 2989:1.0 42:1.0 17:1.0 78:1.0 17:1.0 19:1.0 
-0.0 -0.0 0.0 0.0 0.10956165266572293 0.0 0.0 12:1.0 3300:1.0 25:1.0 154:1.0 34:1.0 
-0.0 -0.0 0.0 0.0 0.08403361344537816 0.0 0.0 12:1.0 3301:1.0 74:1.0 17:1.0 25:1.0 42:1.0 17:1.0 19:1.0 
-0.2857142857142857 -0.0 0.0 0.0 0.0 0.0 0.0 12:1.0 254:1.0 53:1.0 
-0.0 -0.0 0.0 0.0 0.13302578734663567 0.0 0.0 12:1.0 304:1.0 42:1.0 53:1.0 
-0.0 -0.0 0.0 0.0 0.07142857142857147 0.0 0.0 29:1.0 3310:1.0 78:1.0 17:1.0 14:1.0 17:1.0 17:1.0 17:1.0 17:1.0 19:1.0 
-0.0 -0.0 0.0 0.0 0.07295882636615765 0.0 0.0 29:1.0 3311:1.0 78:1.0 17:1.0 14:1.0 17:1.0 17:1.0 17:1.0 17:1.0 19:1.0 
-0.0 -0.0 0.0 0.0 0.15093330381947695 0.0 0.0 29:1.0 131:1.0 17:1.0 53:1.0 
-0.0 -0.1861812379299094 0.0 0.0 0.0 0.0 0.0 75:1.0 2526:1.0 25:1.0 14:1.0 25:1.0 26:1.0 
-0.16666666666666666 -0.23534977044791852 0.0 0.24305555555555558 0.0 0.0 0.0 37:1.0 63:1.0 82:1.0 
-0.0 -0.0 0.0 0.0 0.1094761074451148 0.0 0.0 12:1.0 3313:1.0 25:1.0 17:1.0 17:1.0 53:1.0 
-0.0 -0.0 0.0 0.0 0.08222222222222222 0.0 0.0 12:1.0 2829:1.0 78:1.0 17:1.0 25:1.0 60:1.0 17:1.0 19:1.0 
-0.0 -0.0 0.0 0.0 0.08349988515492882 0.0 0.0 12:1.0 254:1.0 14:1.0 25:1.0 42:1.0 17:1.0 19:1.0 
-0.0 -0.0 0.0 0.0 0.13436477253470666 0.0 0.0 29:1.0 3317:1.0 78:1.0 56:1.0 
-0.0 -0.0 0.0 0.09354861408432837 0.1040151515151515 0.0 0.0 29:1.0 3318:1.0 14:1.0 17:1.0 19:1.0 
-0.0 -0.0 0.0 0.0 0.10040873455193176 0.0 0.0 12:1.0 2873:1.0 14:1.0 334:1.0 166:1.0 42:1.0 26:1.0 
-0.0 -0.0 0.0 0.03600845285666715 0.12857142857142856 0.0 0.0 29:1.0 3320:1.0 65:1.0 17:1.0 42:1.0 53:1.0 
-0.0 -0.0 0.0 0.0 0.15938563972920025 0.0 0.0 12:1.0 3322:1.0 154:1.0 53:1.0 
-0.0 -0.0 0.0 0.0 0.15149310587161 0.0 0.0 12:1.0 2817:1.0 17:1.0 53:1.0 
-0.0 -0.0 0.0 0.0 0.11282871987456884 0.0 0.0 12:1.0 103:1.0 14:1.0 7:1.0 8:1.0 
-0.0 -0.0 0.0 0.0 0.13784324041408577 0.0 0.0 12:1.0 3312:1.0 14:1.0 42:1.0 17:1.0 19:1.0 
-0.0 -0.0 0.0 0.0 0.125 0.0 0.0 12:1.0 1250:1.0 25:1.0 17:1.0 53:1.0 
-0.36111111111111116 -0.23101213125426082 0.15155143690129114 0.2448979591836735 0.0 0.0 0.0 456:1.0 3327:1.0 129:1.0 
-0.0 -0.0 0.0 0.0 0.14285714285714285 0.0 0.0 12:1.0 1660:1.0 154:1.0 455:1.0 
-0.0 -0.0 0.0 0.0 0.1111111111111111 0.0 0.0 12:1.0 2363:1.0 78:1.0 17:1.0 14:1.0 25:1.0 154:1.0 17:1.0 19:1.0 
-0.0 -0.0 0.0 0.0 0.1009393467135928 0.0 0.0 12:1.0 3330:1.0 14:1.0 78:1.0 25:1.0 154:1.0 17:1.0 42:1.0 17:1.0 19:1.0 
-0.0 -0.0 0.0 0.0 0.1818181818181818 0.0 0.0 12:1.0 1373:1.0 25:1.0 154:1.0 53:1.0 
-0.1977596734541179 -0.0 0.0 0.0 0.0 0.0 0.0 108:1.0 3333:1.0 129:1.0 
-0.0 -0.0 0.0 0.0 0.04962331055936699 0.0 0.0 12:1.0 3337:1.0 78:1.0 17:1.0 14:1.0 78:1.0 154:1.0 17:1.0 42:1.0 17:1.0 19:1.0 
-0.0 -0.0 0.0 0.0 0.16666666666666666 0.0 0.0 12:1.0 3339:1.0 42:1.0 17:1.0 17:1.0 53:1.0 
-0.0 -0.0 0.0 0.0 0.06316348625390464 0.0 0.0 12:1.0 3345:1.0 14:1.0 60:1.0 42:1.0 7:1.0 8:1.0 
-0.1599449303530936 -0.0 0.0 0.0 0.0 0.0 0.0 81:1.0 3348:1.0 82:1.0 
-0.0 -0.0 0.0 0.13006438006438006 0.0 0.0 0.0 75:1.0 1923:1.0 25:1.0 56:1.0 
-0.1993339002267574 -0.0 0.0 0.0 0.0 0.0 0.0 81:1.0 3351:1.0 82:1.0 
-0.0 -0.0 0.0 0.0 0.06448950394612522 0.0 0.0 12:1.0 752:1.0 14:1.0 25:1.0 78:1.0 17:1.0 42:1.0 17:1.0 19:1.0 
-0.0 -0.0 0.0 0.10806161667131056 0.19999999999999998 0.0 0.0 12:1.0 3354:1.0 14:1.0 7:1.0 8:1.0 
-0.0 -0.0 0.0 0.20833333333333334 0.0 0.1407803926611797 0.0 75:1.0 460:1.0 14:1.0 25:1.0 53:1.0 
-0.0 -0.1210156228481326 0.0 0.08504148912312177 0.0 0.0 0.0 4:1.0 3345:1.0 17:1.0 264:1.0 14:1.0 154:1.0 6:1.0 17:1.0 17:1.0 19:1.0 
-0.0 -0.19184077834732158 0.08965014577259475 0.06593406593406594 0.0 0.07352131615045845 0.0 4:1.0 2964:1.0 17:1.0 14:1.0 264:1.0 154:1.0 6:1.0 17:1.0 17:1.0 19:1.0 
-0.25396825396825395 -0.0 0.0 0.0 0.0 0.0 0.0 81:1.0 3357:1.0 82:1.0 
-0.0 -0.0 0.0 0.096493783993784 0.029849913462939304 0.0 0.0 12:1.0 2894:1.0 78:1.0 17:1.0 14:1.0 25:1.0 17:1.0 19:1.0 
-0.4458974667308001 -0.3682010582010582 0.20918367346938777 0.2857142857142857 0.0 0.25462962962962965 0.0 108:1.0 1863:1.0 129:1.0 
-0.0 -0.0 0.0 0.06029753976182549 0.07194444444444445 0.06536757273843044 0.0 12:1.0 3292:1.0 14:1.0 25:1.0 78:1.0 17:1.0 42:1.0 17:1.0 19:1.0 
-0.2222222222222222 -0.0 0.2857142857142857 0.3333333333333333 0.09061436027079975 0.16666666666666666 0.11764705882352941 81:1.0 3359:1.0 82:1.0 
-0.14285714285714288 -0.0 -0.0 0.0 0.0 0.0 0.0 57:1.0 1142:1.0 138:1.0 3:1.0 
-0.09953153123316294 -0.06951816144481063 -0.0 0.0 0.0 0.0 0.0 57:1.0 644:1.0 6:1.0 455:1.0 
-0.09731286584433438 -0.06006240061967616 -0.0 0.0 0.0 0.0 0.0 57:1.0 2085:1.0 138:1.0 94:1.0 
-0.14187094956325727 -0.10804400278084487 -0.15155143690129114 0.0 0.0 0.0 0.0 57:1.0 2695:1.0 138:1.0 3:1.0 
-0.09458063304217151 -0.1556455240665767 -0.10459183673469387 0.0 0.0 0.0 0.0 57:1.0 1531:1.0 138:1.0 50:1.0 
-0.16825396825396824 -0.09176788124156544 -0.08965014577259475 0.0 0.0 0.0 0.0 57:1.0 2702:1.0 138:1.0 140:1.0 
-0.11648351648351649 -0.08636977058029689 -0.20918367346938777 0.0 0.0 0.0 0.0 57:1.0 3033:1.0 138:1.0 50:1.0 
-0.14285714285714282 -0.20512820512820515 -0.25 0.0 0.0 0.0 0.0 57:1.0 3063:1.0 138:1.0 3:1.0 
-0.2 -0.15384615384615385 -0.2857142857142857 0.0 0.0 0.0 0.0 57:1.0 2081:1.0 138:1.0 50:1.0 
-0.0 -0.0 -0.0 0.0 0.09656128994971973 0.0 0.0 57:1.0 543:1.0 387:1.0 17:1.0 53:1.0 
-0.0 -0.0 -0.0 0.12373737373737373 0.1136300063572791 0.0 0.0 57:1.0 3331:1.0 112:1.0 138:1.0 50:1.0 
-0.0 -0.0 -0.0 0.1431818181818182 0.1346853146853147 0.10303571428571427 0.0 57:1.0 586:1.0 116:1.0 138:1.0 50:1.0 
-0.0 -0.0 -0.0 0.1431818181818182 0.1258741258741259 0.1325 0.0 57:1.0 466:1.0 138:1.0 96:1.0 96:1.0 294:1.0 3:1.0 
-0.0 -0.0 -0.0 0.175 0.16363636363636364 0.175 0.0 57:1.0 131:1.0 14:1.0 39:1.0 17:1.0 53:1.0 
-0.0 -0.0 -0.0 0.25 0.2 0.25 0.10526315789473684 57:1.0 3113:1.0 96:1.0 138:1.0 50:1.0 
-0.16904682773084914 -0.09210526315789475 -0.22040816326530613 -0.0 0.0 0.0 0.0 120:1.0 121:1.0 7:1.0 8:1.0 
-0.1750325687980931 -0.0 -0.0 -0.0 0.0 0.0 0.0 141:1.0 353:1.0 52:1.0 46:1.0 47:1.0 
-0.0 -0.0 -0.0 -0.0 0.17746913580246915 0.0 0.0 165:1.0 133:1.0 264:1.0 14:1.0 6:1.0 53:1.0 
-0.3333333333333333 -0.0 -0.0 -0.0 0.0 0.0 0.0 141:1.0 353:1.0 52:1.0 107:1.0 
-0.4112033711211139 -0.0 -0.08504148912312177 -0.0 0.0 0.0 0.0 141:1.0 621:1.0 52:1.0 318:1.0 
-0.11544318438452754 -0.115829346092504 -0.07836734693877552 -0.0 0.0 0.0 0.0 120:1.0 676:1.0 60:1.0 7:1.0 8:1.0 
-0.09775481405874965 -0.0 -0.0 -0.0 0.0 0.0 0.0 141:1.0 229:1.0 74:1.0 17:1.0 14:1.0 60:1.0 6:1.0 52:1.0 17:1.0 19:1.0 
-0.4 -0.0 -0.0 -0.0 0.0 0.0 0.0 141:1.0 353:1.0 52:1.0 3:1.0 
-0.11792603276710059 -0.0 -0.0 -0.0 0.0 0.0 0.0 141:1.0 383:1.0 25:1.0 17:1.0 42:1.0 17:1.0 42:1.0 17:1.0 138:1.0 223:1.0 52:1.0 138:1.0 50:1.0 
-0.1111474971336574 -0.0 -0.0 -0.0 0.0 0.0 0.0 141:1.0 383:1.0 25:1.0 17:1.0 42:1.0 17:1.0 138:1.0 42:1.0 17:1.0 223:1.0 52:1.0 138:1.0 50:1.0 
-0.18986695512616525 -0.0 -0.0 -0.0 0.0 0.0 0.0 141:1.0 229:1.0 25:1.0 17:1.0 42:1.0 17:1.0 138:1.0 42:1.0 17:1.0 138:1.0 223:1.0 52:1.0 50:1.0 
-0.1773715947297939 -0.0 -0.0 -0.0 0.0 0.0 0.0 141:1.0 383:1.0 78:1.0 17:1.0 17:1.0 6:1.0 17:1.0 52:1.0 26:1.0 
-0.17645163360204816 -0.0 -0.0 -0.0 0.0 0.0 0.0 165:1.0 914:1.0 26:1.0 
-0.28571428571428575 -0.0 -0.0 -0.0 0.0 0.0 0.0 141:1.0 229:1.0 96:1.0 52:1.0 140:1.0 
-0.2 -0.0 -0.0 -0.0 0.0 0.0 0.0 141:1.0 229:1.0 112:1.0 22:1.0 52:1.0 50:1.0 
-0.08245941741751965 -0.0 -0.0 -0.0 0.061831397472423125 0.0 0.0 120:1.0 526:1.0 14:1.0 78:1.0 17:1.0 42:1.0 53:1.0 
-0.1000547394715386 -0.0 -0.0 -0.0 0.0 0.0 0.0 141:1.0 142:1.0 139:1.0 139:1.0 52:1.0 69:1.0 50:1.0 
-0.08648863735417682 -0.0 -0.0 -0.0 0.0 0.0 0.0 141:1.0 518:1.0 52:1.0 139:1.0 50:1.0 
-0.17645163360204813 -0.0 -0.13006438006438006 -0.0 0.0 0.0 0.0 165:1.0 687:1.0 26:1.0 
-0.0679698279777257 -0.0 -0.0 -0.0 0.0 0.0 0.0 141:1.0 229:1.0 25:1.0 14:1.0 6:1.0 52:1.0 34:1.0 
-0.2068117068117068 -0.0 -0.14693877551020407 -0.0 0.0 0.0 0.0 141:1.0 353:1.0 52:1.0 94:1.0 
-0.34134781738536685 -0.0 -0.0 -0.0 0.0 0.0 0.0 141:1.0 229:1.0 52:1.0 50:1.0 
-0.11844429013335264 -0.0 -0.0 -0.0 0.0 0.0 0.0 141:1.0 142:1.0 96:1.0 52:1.0 96:1.0 94:1.0 
-0.4681323844532851 -0.0 -0.0 -0.0 0.0 0.0 0.0 141:1.0 142:1.0 52:1.0 53:1.0 
-0.19873560782651695 -0.0 -0.0 -0.0 0.0 0.0 0.0 141:1.0 1184:1.0 52:1.0 96:1.0 50:1.0 
-0.14130272791548074 -0.0 -0.0 -0.0 0.0 0.0 0.0 141:1.0 142:1.0 42:1.0 17:1.0 52:1.0 17:1.0 96:1.0 17:1.0 140:1.0 
-0.22435691110404477 -0.1118421052631579 -0.17142857142857143 -0.1431818181818182 0.09170684491197312 0.11886312621161105 0.0 120:1.0 1790:1.0 14:1.0 53:1.0 
-0.17645163360204816 -0.11931462178172705 -0.096493783993784 -0.0 0.0 0.0 0.0 165:1.0 1459:1.0 53:1.0 
-1100.0 -0.0 -0.0 -0.0 0.0 0.0 0.0 141:1.0 142:1.0 52:1.0 138:1.0 42:1.0 53:1.0 
-0.11544318438452753 -0.06286971637848832 -0.11310904571618859 -0.0 0.10838081671415004 0.10777216610549943 0.0 120:1.0 1973:1.0 17:1.0 18:1.0 17:1.0 26:1.0 
-0.22127804855077582 -0.10526315789473684 -0.2857142857142857 -0.1431818181818182 0.19135802469135804 0.21666666666666665 0.0 120:1.0 2041:1.0 7:1.0 8:1.0 
-0.1794581462758229 -0.0 -0.0 -0.0 0.0 0.0 0.0 141:1.0 142:1.0 52:1.0 223:1.0 112:1.0 3:1.0 
-0.13384762487098886 -0.0 -0.0 -0.0 0.0 0.0 0.0 141:1.0 142:1.0 112:1.0 22:1.0 52:1.0 17:1.0 318:1.0 
-0.44979759419812115 -0.11892736892736894 -0.2448979591836735 -0.0 0.0 0.0 0.0 141:1.0 518:1.0 52:1.0 140:1.0 
-0.2222222222222222 -0.0 -0.10806161667131056 -0.0 0.0 0.0 0.0 141:1.0 2123:1.0 52:1.0 139:1.0 50:1.0 
-0.12148767587044318 -0.0 -0.0 -0.0 0.0 0.0 0.0 141:1.0 142:1.0 139:1.0 69:1.0 52:1.0 3:1.0 
-0.1678321678321678 -0.19444444444444445 -0.13186813186813187 -0.12373737373737373 0.0 0.0 0.0 141:1.0 229:1.0 52:1.0 107:1.0 
-0.2591297591297591 -0.0 -0.0 -0.0 0.0 0.0 0.0 141:1.0 229:1.0 139:1.0 52:1.0 107:1.0 
-0.16432333580674696 -0.0 -0.0 -0.0 0.0 0.0 0.0 141:1.0 142:1.0 112:1.0 52:1.0 3:1.0 
-0.25 -0.0 -0.0 -0.0 0.0 0.0 0.0 141:1.0 142:1.0 69:1.0 52:1.0 96:1.0 140:1.0 
-0.1642819447234303 -0.0 -0.0 -0.0 0.0 0.0 0.0 141:1.0 142:1.0 139:1.0 96:1.0 52:1.0 50:1.0 
-0.14925390266299354 -0.0 -0.0 -0.0 0.0 0.0 0.0 141:1.0 518:1.0 52:1.0 69:1.0 112:1.0 96:1.0 107:1.0 
-0.20825247188290627 -0.0 -0.0 -0.0 0.0 0.0 0.0 141:1.0 142:1.0 223:1.0 112:1.0 112:1.0 52:1.0 96:1.0 50:1.0 
-0.28155570986664735 -0.0 -0.0 -0.0 0.0 0.0 0.0 141:1.0 142:1.0 112:1.0 112:1.0 52:1.0 50:1.0 
-0.06377460760839844 -0.0 -0.0 -0.0 0.04884944115713347 0.04924637792062035 0.0 120:1.0 2881:1.0 78:1.0 17:1.0 78:1.0 17:1.0 14:1.0 17:1.0 17:1.0 17:1.0 42:1.0 53:1.0 
-0.21575373525496438 -0.10822510822510822 -0.24305555555555558 -0.0 0.0 0.0 0.0 165:1.0 133:1.0 26:1.0 
-0.09295437543810355 -0.0 -0.0 -0.0 0.0 0.0 0.0 141:1.0 229:1.0 112:1.0 52:1.0 96:1.0 50:1.0 
-0.15041097370642825 -0.2380952380952381 -0.20833333333333334 -0.0 0.0 0.0 0.0 165:1.0 751:1.0 53:1.0 
-0.0805876651507473 -0.0 -0.0 -0.0 0.0 0.0 0.0 141:1.0 2123:1.0 17:1.0 78:1.0 14:1.0 6:1.0 17:1.0 52:1.0 297:1.0 
-0.014319507538587545 -0.2222222222222222 -0.15384615384615385 -0.175 0.0 0.0 0.0 141:1.0 142:1.0 52:1.0 50:1.0 
-0.3047180289490167 -0.0 -0.0 -0.0 0.0 0.0 0.0 141:1.0 383:1.0 154:1.0 6:1.0 52:1.0 7:1.0 8:1.0 
-0.11723234625927542 -0.0 -0.0 -0.0 0.0 0.0 0.0 165:1.0 2680:1.0 6:1.0 53:1.0 
-0.3333333333333333 -0.0 -0.0 -0.0 0.06448665443056469 0.0 0.0 141:1.0 383:1.0 42:1.0 6:1.0 52:1.0 7:1.0 8:1.0 
-0.10291637938075766 -0.0 -0.0 -0.0 0.0 0.0 0.0 141:1.0 518:1.0 112:1.0 52:1.0 112:1.0 96:1.0 96:1.0 96:1.0 50:1.0 
-0.2222222222222222 -0.16666666666666666 -0.3333333333333333 -0.25 0.0 0.0 0.0 165:1.0 55:1.0 56:1.0 
-0.2 -0.0 -0.0 -0.0 0.0 0.0 0.0 141:1.0 229:1.0 112:1.0 52:1.0 46:1.0 47:1.0 
-0.25527706954867224 -0.0 -0.0 -0.0 0.06226166995397763 0.07265818698347107 0.0 141:1.0 229:1.0 14:1.0 42:1.0 60:1.0 39:1.0 52:1.0 42:1.0 53:1.0 
-0.0 -0.0 -0.0 -0.0 0.09420702754036088 0.06742028874604632 0.0 141:1.0 518:1.0 52:1.0 112:1.0 96:1.0 22:1.0 96:1.0 50:1.0 
-0.0 -0.0 -0.0 -0.0 0.08487152092921324 0.0 0.0 165:1.0 1459:1.0 14:1.0 6:1.0 7:1.0 11:1.0 
-0.0 -0.0 -0.0 -0.0 0.09258711374095989 0.11338383838383836 0.0 165:1.0 3260:1.0 14:1.0 264:1.0 14:1.0 7:1.0 8:1.0 
-0.0 -0.0 -0.0 -0.0 0.08410493827160494 0.10101010101010101 0.0 165:1.0 1991:1.0 25:1.0 14:1.0 25:1.0 17:1.0 42:1.0 17:1.0 19:1.0 
-0.40798892276677323 -0.0 -0.0 -0.0 0.0 0.0 0.0 141:1.0 142:1.0 223:1.0 52:1.0 140:1.0 
-0.0 -0.0 -0.0 -0.0 0.08256172839506172 0.10915999483471076 0.0 165:1.0 133:1.0 14:1.0 334:1.0 6:1.0 42:1.0 26:1.0 
-0.32142857142857145 -0.0 -0.0 -0.0 0.0 0.0 0.0 141:1.0 142:1.0 112:1.0 52:1.0 50:1.0 
-0.2976190476190476 -0.0 -0.0 -0.0 0.0 0.0 0.0 141:1.0 142:1.0 116:1.0 52:1.0 50:1.0 
-0.0 -0.0 -0.0 -0.0 0.12307692307692308 0.12603305785123967 0.0 141:1.0 1184:1.0 52:1.0 96:1.0 96:1.0 294:1.0 3:1.0 
-0.3333333333333333 -0.0 -0.0 -0.0 0.2 0.13113687378838895 0.10526315789473684 141:1.0 142:1.0 96:1.0 52:1.0 50:1.0 
-0.0 -0.0 -0.10040873455193176 -0.0 -0.0 0.0 0.0 12:1.0 269:1.0 25:1.0 14:1.0 264:1.0 14:1.0 26:1.0 
-0.0 -0.0 -0.31464495688155264 -0.0 -0.0 0.0 0.0 12:1.0 269:1.0 264:1.0 14:1.0 78:1.0 26:1.0 
-0.0 -0.0818342151675485 -0.3007311476275378 -0.0 -0.0 0.0 0.0 12:1.0 310:1.0 264:1.0 52:1.0 7:1.0 8:1.0 
-0.0 -0.0 -0.1818181818181818 -0.0 -0.0 0.0 0.0 12:1.0 396:1.0 264:1.0 14:1.0 25:1.0 17:1.0 42:1.0 53:1.0 
-0.07247313247098586 -0.08030357476750129 -0.3606874672261924 -0.0 -0.0 0.0 0.0 12:1.0 542:1.0 264:1.0 14:1.0 166:1.0 53:1.0 
-0.0 -0.0 -0.13784324041408577 -0.0 -0.0 0.0 0.0 273:1.0 590:1.0 264:1.0 14:1.0 78:1.0 26:1.0 
-0.0 -0.0 -0.125 -0.0 -0.0 0.0 0.0 12:1.0 669:1.0 33:1.0 17:1.0 14:1.0 33:1.0 60:1.0 264:1.0 14:1.0 17:1.0 42:1.0 17:1.0 19:1.0 
-0.0 -0.0 -0.05470534093810856 -0.0 -0.0 0.0 0.0 12:1.0 211:1.0 74:1.0 17:1.0 25:1.0 14:1.0 60:1.0 264:1.0 14:1.0 18:1.0 17:1.0 42:1.0 17:1.0 19:1.0 
-0.18583234946871308 -0.08744082428292954 -0.15416666666666667 -0.09656128994971973 -0.12307692307692308 0.08952137774506197 0.0 273:1.0 590:1.0 264:1.0 14:1.0 78:1.0 56:1.0 
-0.08696775896518304 -0.08888888888888889 -0.37343390402612087 -0.0 -0.0 0.0 0.0 12:1.0 446:1.0 264:1.0 14:1.0 7:1.0 8:1.0 
-0.07717827367156933 -0.07592410344558573 -0.19225169652819904 -0.0 -0.06448665443056469 0.0 0.0 29:1.0 913:1.0 78:1.0 17:1.0 14:1.0 387:1.0 6:1.0 17:1.0 19:1.0 
-0.09566453486170133 -0.06620420279613544 -0.3644274962361474 -0.0 -0.08487152092921324 0.0 0.0 12:1.0 363:1.0 264:1.0 14:1.0 7:1.0 8:1.0 
-0.13837146980004125 -0.08750360750360751 -0.24368099787134406 -0.0 -0.10838081671415004 0.0 0.05882352941176472 29:1.0 686:1.0 14:1.0 6:1.0 42:1.0 17:1.0 19:1.0 
-0.0 -0.0 -0.19999999999999998 -0.0 -0.0 0.0 0.0 12:1.0 1319:1.0 14:1.0 264:1.0 14:1.0 7:1.0 8:1.0 
-0.0 -0.0 -0.20168067226890757 -0.0 -0.0 0.0 0.0 12:1.0 1335:1.0 14:1.0 60:1.0 264:1.0 14:1.0 52:1.0 26:1.0 
-0.43153988868274584 -0.10229276895943563 -0.35896360684978 -0.1346853146853147 -0.19135802469135804 0.0 0.0 12:1.0 178:1.0 264:1.0 14:1.0 53:1.0 
-0.22597402597402597 -0.10052910052910052 -0.325 -0.1136300063572791 -0.17746913580246915 0.0 0.0 29:1.0 1365:1.0 25:1.0 6:1.0 25:1.0 56:1.0 
-0.10966176680462396 -0.0 -0.5165285932997915 -0.0 -0.0 0.0 0.0 12:1.0 148:1.0 264:1.0 14:1.0 78:1.0 166:1.0 26:1.0 
-0.0 -0.0 -0.21932173072544062 -0.0 -0.0 0.0 0.0 12:1.0 1026:1.0 14:1.0 264:1.0 14:1.0 78:1.0 25:1.0 166:1.0 53:1.0 
-0.1031052677481249 -0.08766646052360337 -0.20687765576966774 -0.0 -0.09170684491197312 0.054628879892037796 0.0 29:1.0 1424:1.0 25:1.0 14:1.0 60:1.0 264:1.0 14:1.0 17:1.0 34:1.0 
-0.07178484865916228 -0.05833573833573834 -0.125022963517557 -0.0 -0.0 0.06491643932258653 0.0 29:1.0 1454:1.0 408:1.0 17:1.0 1451:1.0 910:1.0 17:1.0 78:1.0 17:1.0 19:1.0 
-0.0 -0.0 -0.08073190392219863 -0.0 -0.0 0.0 0.0 12:1.0 144:1.0 17:1.0 14:1.0 264:1.0 14:1.0 78:1.0 42:1.0 42:1.0 297:1.0 
-0.0 -0.0 -0.1750782788927994 -0.0 -0.0 0.0 0.0 12:1.0 1611:1.0 78:1.0 17:1.0 14:1.0 25:1.0 910:1.0 25:1.0 42:1.0 53:1.0 
-0.0906860815951725 -0.07423014607225134 -0.13436477253470666 -0.0 -0.061831397472423125 0.08064102564102564 0.0 273:1.0 199:1.0 1823:1.0 25:1.0 42:1.0 6:1.0 17:1.0 78:1.0 78:1.0 17:1.0 42:1.0 17:1.0 19:1.0 
-0.0 -0.0 -0.16666666666666666 -0.0 -0.0 0.0 0.0 12:1.0 1840:1.0 25:1.0 14:1.0 25:1.0 264:1.0 14:1.0 53:1.0 
-0.10169520226714655 -0.05973620046779547 -0.2380353915325819 -0.0 -0.0 0.09999999999999999 0.0 29:1.0 631:1.0 14:1.0 14:1.0 25:1.0 154:1.0 6:1.0 52:1.0 17:1.0 19:1.0 
-0.0 -0.0 -0.19461099626603992 -0.0 -0.0 0.0 0.0 12:1.0 2000:1.0 25:1.0 14:1.0 25:1.0 264:1.0 14:1.0 334:1.0 154:1.0 17:1.0 19:1.0 
-0.14285714285714285 -0.11111111111111112 -0.4300896852678393 -0.16363636363636364 -0.16666666666666666 0.0 0.0 12:1.0 2091:1.0 264:1.0 14:1.0 53:1.0 
-0.10523098834787147 -0.09973544973544975 -0.27020966013153513 -0.0 -0.09258711374095989 0.0 0.0 12:1.0 2125:1.0 1451:1.0 910:1.0 14:1.0 26:1.0 
-0.0 -0.0 -0.22124537094769678 -0.0 -0.0 0.0 0.0 12:1.0 829:1.0 14:1.0 25:1.0 25:1.0 910:1.0 53:1.0 
-0.0 -0.0 -0.15384615384615383 -0.0 -0.0 0.0 0.0 12:1.0 1594:1.0 25:1.0 264:1.0 14:1.0 17:1.0 17:1.0 53:1.0 
-0.0 -0.0 -0.19321730725440622 -0.0 -0.0 0.0 0.0 12:1.0 1807:1.0 60:1.0 264:1.0 14:1.0 42:1.0 17:1.0 42:1.0 26:1.0 
-0.1584003298289013 -0.09206349206349207 -0.3528985404403603 -0.0 -0.09420702754036088 0.0 0.0 12:1.0 2121:1.0 264:1.0 14:1.0 154:1.0 53:1.0 
-0.0 -0.0 -0.3176229443754 -0.0 -0.0 0.08051970564095826 0.0 12:1.0 1906:1.0 25:1.0 264:1.0 14:1.0 154:1.0 53:1.0 
-0.0 -0.0 -0.07295882636615765 -0.0 -0.0 0.044097006965530816 0.0 12:1.0 1499:1.0 17:1.0 74:1.0 17:1.0 25:1.0 14:1.0 25:1.0 264:1.0 14:1.0 42:1.0 17:1.0 17:1.0 17:1.0 42:1.0 17:1.0 17:1.0 19:1.0 
-0.0 -0.0 -0.14285714285714285 -0.0 -0.0 0.06641526921543368 0.0 12:1.0 2744:1.0 74:1.0 17:1.0 17:1.0 14:1.0 25:1.0 910:1.0 42:1.0 17:1.0 17:1.0 19:1.0 
-0.0604503988708735 -0.0 -0.15931927272804441 -0.0 -0.0 0.039730094466936566 0.0 29:1.0 2177:1.0 1823:1.0 17:1.0 78:1.0 25:1.0 33:1.0 25:1.0 60:1.0 6:1.0 42:1.0 34:1.0 
-0.0 -0.0 -0.21538461538461537 -0.0 -0.0 0.10812476996687524 0.0 12:1.0 1416:1.0 14:1.0 264:1.0 14:1.0 154:1.0 17:1.0 19:1.0 
-0.28361701429883246 -0.14285714285714285 -0.35956165266572293 -0.2 -0.2 0.16585279144664425 0.0 273:1.0 3236:1.0 6:1.0 7:1.0 8:1.0 
-0.13333333333333333 -0.09523809523809523 -0.30369318181818183 -0.1258741258741259 -0.1111111111111111 0.1559029930344692 0.0 29:1.0 3186:1.0 387:1.0 910:1.0 7:1.0 8:1.0 
-0.0 -0.0 -0.13558768262964752 -0.0 -0.0 0.09716599190283401 0.0 12:1.0 3263:1.0 14:1.0 33:1.0 60:1.0 78:1.0 65:1.0 264:1.0 14:1.0 26:1.0 
-0.0 -0.0 -0.11343647725347066 -0.0 -0.0 0.06432477610109189 0.08333333333333333 12:1.0 3356:1.0 17:1.0 14:1.0 264:1.0 14:1.0 154:1.0 17:1.0 17:1.0 19:1.0 
-0.14853395061728394 -0.15736961451247167 -0.1407803926611797 -0.0 -0.10777216610549943 -0.10812476996687524 0.0 300:1.0 375:1.0 318:1.0 
-0.1697530864197531 -0.21034685479129925 -0.14690500685871058 -0.0 -0.11338383838383836 -0.08064102564102564 0.0 300:1.0 564:1.0 94:1.0 
-0.271604938271605 -0.10781893004115227 -0.25462962962962965 -0.0 -0.21666666666666665 -0.09435897435897436 0.0 300:1.0 631:1.0 3:1.0 
-0.23076923076923075 -0.12130249099946071 -0.1000055114638448 -0.0 -0.12603305785123967 -0.09999999999999999 0.0 923:1.0 924:1.0 96:1.0 140:1.0 
-0.31868131868131866 -0.2222222222222222 -0.3333333333333333 -0.175 -0.18181818181818182 -0.2 0.0 923:1.0 924:1.0 46:1.0 47:1.0 
-0.14814814814814814 -0.12345679012345681 -0.1388888888888889 -0.1325 -0.11666666666666667 -0.23076923076923078 0.0 300:1.0 205:1.0 50:1.0 
-0.2222222222222222 -0.16666666666666666 -0.3333333333333333 -0.25 -0.25 -0.15384615384615385 0.0 300:1.0 1753:1.0 56:1.0 
-0.14638447971781307 -0.25315095803311294 -0.1878858024691358 -0.10303571428571427 -0.10101010101010101 -0.09716599190283401 0.0 15:1.0 1725:1.0 14:1.0 78:1.0 42:1.0 17:1.0 39:1.0 17:1.0 19:1.0 
-0.12996720679012344 -0.0 -0.0 -0.0 -0.0 -0.08051970564095826 0.0 300:1.0 131:1.0 112:1.0 3:1.0 
-0.12996720679012347 -0.09254386415094021 -0.0985462748628258 -0.0 -0.0 -0.06641526921543368 0.0 300:1.0 243:1.0 17:1.0 50:1.0 
-0.0 -0.0 -0.0 -0.0 -0.0 -0.0 0.09523809523809523 300:1.0 3342:1.0 52:1.0 138:1.0 96:1.0 96:1.0 3:1.0 
-0.1 -0.08695652173913043 -0.11764705882352941 -0.10526315789473684 -0.10526315789473684 -0.14215686274509803 -0.09523809523809523 29:1.0 686:1.0 74:1.0 17:1.0 25:1.0 14:1.0 60:1.0 264:1.0 14:1.0 6:1.0 17:1.0 42:1.0 17:1.0 19:1.0 
